=== Run information ===

Scheme:weka.classifiers.meta.AdaBoostM1 -P 100 -S 1 -I 100 -W weka.classifiers.trees.J48 -- -C 0.25 -M 2
Relation:     preprocess_car_data
Instances:    1728
Attributes:   7
              buying
              maint
              doors
              persons
              lug_boot
              safety
              class
Test mode:10-fold cross-validation

=== Classifier model (full training set) ===

AdaBoostM1: Base classifiers and their weights: 

J48 pruned tree
------------------

persons <= 2: unacc (576.0)
persons > 2
|   safety <= 1: unacc (384.0)
|   safety > 1
|   |   buying <= 2
|   |   |   maint <= 2
|   |   |   |   safety <= 2
|   |   |   |   |   lug_boot <= 1
|   |   |   |   |   |   doors <= 2
|   |   |   |   |   |   |   persons <= 4: acc (4.0)
|   |   |   |   |   |   |   persons > 4: unacc (4.0)
|   |   |   |   |   |   doors > 2: acc (24.0)
|   |   |   |   |   lug_boot > 1
|   |   |   |   |   |   buying <= 1
|   |   |   |   |   |   |   lug_boot <= 2
|   |   |   |   |   |   |   |   doors <= 3
|   |   |   |   |   |   |   |   |   doors <= 2: acc (4.0)
|   |   |   |   |   |   |   |   |   doors > 2
|   |   |   |   |   |   |   |   |   |   persons <= 4: acc (2.0)
|   |   |   |   |   |   |   |   |   |   persons > 4: good (2.0)
|   |   |   |   |   |   |   |   doors > 3: good (8.0)
|   |   |   |   |   |   |   lug_boot > 2: good (16.0)
|   |   |   |   |   |   buying > 1
|   |   |   |   |   |   |   maint <= 1
|   |   |   |   |   |   |   |   lug_boot <= 2
|   |   |   |   |   |   |   |   |   doors <= 3: acc (4.0/1.0)
|   |   |   |   |   |   |   |   |   doors > 3: good (4.0)
|   |   |   |   |   |   |   |   lug_boot > 2: good (8.0)
|   |   |   |   |   |   |   maint > 1: acc (16.0)
|   |   |   |   safety > 2
|   |   |   |   |   lug_boot <= 1
|   |   |   |   |   |   doors <= 2
|   |   |   |   |   |   |   persons <= 4: good (4.0/1.0)
|   |   |   |   |   |   |   persons > 4: unacc (4.0)
|   |   |   |   |   |   doors > 2
|   |   |   |   |   |   |   buying <= 1: good (12.0)
|   |   |   |   |   |   |   buying > 1
|   |   |   |   |   |   |   |   maint <= 1: good (6.0)
|   |   |   |   |   |   |   |   maint > 1: acc (6.0)
|   |   |   |   |   lug_boot > 1
|   |   |   |   |   |   lug_boot <= 2
|   |   |   |   |   |   |   doors <= 3
|   |   |   |   |   |   |   |   doors <= 2
|   |   |   |   |   |   |   |   |   buying <= 1: good (4.0)
|   |   |   |   |   |   |   |   |   buying > 1
|   |   |   |   |   |   |   |   |   |   maint <= 1: good (2.0)
|   |   |   |   |   |   |   |   |   |   maint > 1: acc (2.0)
|   |   |   |   |   |   |   |   doors > 2
|   |   |   |   |   |   |   |   |   persons <= 4: good (4.0/1.0)
|   |   |   |   |   |   |   |   |   persons > 4: vgood (4.0)
|   |   |   |   |   |   |   doors > 3: vgood (16.0)
|   |   |   |   |   |   lug_boot > 2: vgood (32.0)
|   |   |   maint > 2
|   |   |   |   lug_boot <= 1
|   |   |   |   |   safety <= 2
|   |   |   |   |   |   buying <= 1
|   |   |   |   |   |   |   maint <= 3: acc (8.0/1.0)
|   |   |   |   |   |   |   maint > 3: unacc (8.0)
|   |   |   |   |   |   buying > 1: unacc (16.0)
|   |   |   |   |   safety > 2
|   |   |   |   |   |   doors <= 2
|   |   |   |   |   |   |   persons <= 4: acc (4.0)
|   |   |   |   |   |   |   persons > 4: unacc (4.0)
|   |   |   |   |   |   doors > 2: acc (24.0)
|   |   |   |   lug_boot > 1
|   |   |   |   |   safety <= 2
|   |   |   |   |   |   lug_boot <= 2
|   |   |   |   |   |   |   doors <= 3
|   |   |   |   |   |   |   |   buying <= 1
|   |   |   |   |   |   |   |   |   maint <= 3: acc (4.0)
|   |   |   |   |   |   |   |   |   maint > 3: unacc (4.0/1.0)
|   |   |   |   |   |   |   |   buying > 1
|   |   |   |   |   |   |   |   |   doors <= 2: unacc (4.0)
|   |   |   |   |   |   |   |   |   doors > 2
|   |   |   |   |   |   |   |   |   |   persons <= 4: unacc (2.0)
|   |   |   |   |   |   |   |   |   |   persons > 4: acc (2.0)
|   |   |   |   |   |   |   doors > 3: acc (16.0)
|   |   |   |   |   |   lug_boot > 2: acc (32.0)
|   |   |   |   |   safety > 2
|   |   |   |   |   |   buying <= 1
|   |   |   |   |   |   |   maint <= 3
|   |   |   |   |   |   |   |   lug_boot <= 2
|   |   |   |   |   |   |   |   |   doors <= 3: acc (4.0/1.0)
|   |   |   |   |   |   |   |   |   doors > 3: vgood (4.0)
|   |   |   |   |   |   |   |   lug_boot > 2: vgood (8.0)
|   |   |   |   |   |   |   maint > 3: acc (16.0)
|   |   |   |   |   |   buying > 1: acc (32.0)
|   |   buying > 2
|   |   |   maint <= 3
|   |   |   |   lug_boot <= 1
|   |   |   |   |   safety <= 2: unacc (48.0)
|   |   |   |   |   safety > 2
|   |   |   |   |   |   maint <= 2
|   |   |   |   |   |   |   doors <= 2
|   |   |   |   |   |   |   |   persons <= 4: acc (4.0)
|   |   |   |   |   |   |   |   persons > 4: unacc (4.0)
|   |   |   |   |   |   |   doors > 2: acc (24.0)
|   |   |   |   |   |   maint > 2
|   |   |   |   |   |   |   buying <= 3: acc (8.0/1.0)
|   |   |   |   |   |   |   buying > 3: unacc (8.0)
|   |   |   |   lug_boot > 1
|   |   |   |   |   maint <= 2
|   |   |   |   |   |   lug_boot <= 2
|   |   |   |   |   |   |   safety <= 2
|   |   |   |   |   |   |   |   doors <= 3
|   |   |   |   |   |   |   |   |   doors <= 2: unacc (8.0)
|   |   |   |   |   |   |   |   |   doors > 2
|   |   |   |   |   |   |   |   |   |   persons <= 4: unacc (4.0)
|   |   |   |   |   |   |   |   |   |   persons > 4: acc (4.0)
|   |   |   |   |   |   |   |   doors > 3: acc (16.0)
|   |   |   |   |   |   |   safety > 2: acc (32.0)
|   |   |   |   |   |   lug_boot > 2: acc (64.0)
|   |   |   |   |   maint > 2
|   |   |   |   |   |   buying <= 3: acc (32.0/3.0)
|   |   |   |   |   |   buying > 3: unacc (32.0)
|   |   |   maint > 3: unacc (96.0)

Number of Leaves  : 	59

Size of the tree : 	117


Weight: 5.15

J48 pruned tree
------------------

buying <= 2
|   persons <= 2: unacc (144.84)
|   persons > 2
|   |   maint <= 1
|   |   |   safety <= 1: unacc (24.14)
|   |   |   safety > 1
|   |   |   |   safety <= 2
|   |   |   |   |   lug_boot <= 1: acc (8.05/1.01)
|   |   |   |   |   lug_boot > 1
|   |   |   |   |   |   doors <= 2
|   |   |   |   |   |   |   lug_boot <= 2: acc (2.01)
|   |   |   |   |   |   |   lug_boot > 2: good (2.01)
|   |   |   |   |   |   doors > 2: good (97.97/1.01)
|   |   |   |   safety > 2
|   |   |   |   |   lug_boot <= 1: good (8.05/1.01)
|   |   |   |   |   lug_boot > 1
|   |   |   |   |   |   lug_boot <= 2
|   |   |   |   |   |   |   doors <= 3: good (4.02/1.01)
|   |   |   |   |   |   |   doors > 3: vgood (4.02)
|   |   |   |   |   |   lug_boot > 2: vgood (8.05)
|   |   maint > 1
|   |   |   safety <= 2
|   |   |   |   lug_boot <= 1
|   |   |   |   |   maint <= 2
|   |   |   |   |   |   safety <= 1: unacc (8.05)
|   |   |   |   |   |   safety > 1: acc (8.05/1.01)
|   |   |   |   |   maint > 2: unacc (118.08/3.52)
|   |   |   |   lug_boot > 1
|   |   |   |   |   safety <= 1: unacc (48.28)
|   |   |   |   |   safety > 1
|   |   |   |   |   |   maint <= 2
|   |   |   |   |   |   |   buying <= 1: good (8.05/1.51)
|   |   |   |   |   |   |   buying > 1: acc (8.05)
|   |   |   |   |   |   maint > 2
|   |   |   |   |   |   |   doors <= 2
|   |   |   |   |   |   |   |   lug_boot <= 2: unacc (4.02/1.01)
|   |   |   |   |   |   |   |   lug_boot > 2: acc (4.02)
|   |   |   |   |   |   |   doors > 2: acc (110.04/1.51)
|   |   |   safety > 2
|   |   |   |   buying <= 1
|   |   |   |   |   maint <= 3
|   |   |   |   |   |   lug_boot <= 1
|   |   |   |   |   |   |   maint <= 2: good (4.02/0.5)
|   |   |   |   |   |   |   maint > 2: acc (4.02/0.5)
|   |   |   |   |   |   lug_boot > 1: vgood (101.99/3.02)
|   |   |   |   |   maint > 3: acc (12.07/0.5)
|   |   |   |   buying > 1
|   |   |   |   |   lug_boot <= 2: acc (195.93/4.02)
|   |   |   |   |   lug_boot > 2
|   |   |   |   |   |   maint <= 2: vgood (4.02)
|   |   |   |   |   |   maint > 2: acc (8.05)
buying > 2
|   maint <= 2
|   |   persons <= 2: unacc (72.42)
|   |   persons > 2
|   |   |   safety <= 1: unacc (48.28)
|   |   |   safety > 1
|   |   |   |   safety <= 2
|   |   |   |   |   lug_boot <= 1: unacc (16.09)
|   |   |   |   |   lug_boot > 1
|   |   |   |   |   |   lug_boot <= 2
|   |   |   |   |   |   |   doors <= 3
|   |   |   |   |   |   |   |   doors <= 2: unacc (4.02)
|   |   |   |   |   |   |   |   doors > 2
|   |   |   |   |   |   |   |   |   persons <= 4: unacc (2.01)
|   |   |   |   |   |   |   |   |   persons > 4: acc (2.01)
|   |   |   |   |   |   |   doors > 3: acc (8.05)
|   |   |   |   |   |   lug_boot > 2: acc (16.09)
|   |   |   |   safety > 2: acc (48.28/2.01)
|   maint > 2
|   |   lug_boot <= 2: unacc (488.43/10.06)
|   |   lug_boot > 2
|   |   |   buying <= 3
|   |   |   |   maint <= 3
|   |   |   |   |   persons <= 2: unacc (6.03)
|   |   |   |   |   persons > 2
|   |   |   |   |   |   safety <= 1: unacc (4.02)
|   |   |   |   |   |   safety > 1: acc (8.05)
|   |   |   |   maint > 3: unacc (18.1)
|   |   |   buying > 3: unacc (36.21)

Number of Leaves  : 	41

Size of the tree : 	81


Weight: 3.93

J48 pruned tree
------------------

doors <= 2
|   persons <= 4
|   |   persons <= 2: unacc (36.92)
|   |   persons > 2
|   |   |   safety <= 2
|   |   |   |   buying <= 1
|   |   |   |   |   safety <= 1: unacc (3.08)
|   |   |   |   |   safety > 1: acc (41.58/1.03)
|   |   |   |   buying > 1: unacc (62.25/3.33)
|   |   |   safety > 2
|   |   |   |   buying <= 1
|   |   |   |   |   maint <= 2: good (14.37/0.51)
|   |   |   |   |   maint > 2: acc (14.37/0.26)
|   |   |   |   buying > 1
|   |   |   |   |   maint <= 3: acc (76.38/1.79)
|   |   |   |   |   maint > 3: unacc (2.31/0.77)
|   persons > 4
|   |   lug_boot <= 1: unacc (305.24)
|   |   lug_boot > 1
|   |   |   buying <= 1
|   |   |   |   maint <= 2
|   |   |   |   |   safety <= 2: acc (14.89/1.54)
|   |   |   |   |   safety > 2: good (13.86/0.51)
|   |   |   |   maint > 2: acc (28.75/1.54)
|   |   |   buying > 1
|   |   |   |   safety <= 2: unacc (56.1/2.82)
|   |   |   |   safety > 2: acc (18.99/2.31)
doors > 2
|   persons <= 2: unacc (110.76)
|   persons > 2
|   |   safety <= 2
|   |   |   safety <= 1: unacc (73.84)
|   |   |   safety > 1
|   |   |   |   maint <= 1
|   |   |   |   |   persons <= 4: acc (34.9/4.61)
|   |   |   |   |   persons > 4
|   |   |   |   |   |   buying <= 2: good (48.4/1.54)
|   |   |   |   |   |   buying > 2: acc (4.61/1.54)
|   |   |   |   maint > 1
|   |   |   |   |   persons <= 4
|   |   |   |   |   |   doors <= 3
|   |   |   |   |   |   |   buying <= 1
|   |   |   |   |   |   |   |   maint <= 3: acc (27.21/0.26)
|   |   |   |   |   |   |   |   maint > 3: unacc (13.6/0.26)
|   |   |   |   |   |   |   buying > 1
|   |   |   |   |   |   |   |   lug_boot <= 2: unacc (74.07/0.51)
|   |   |   |   |   |   |   |   lug_boot > 2: acc (2.31/0.77)
|   |   |   |   |   |   doors > 3
|   |   |   |   |   |   |   buying <= 3: acc (65.18/5.13)
|   |   |   |   |   |   |   buying > 3: unacc (4.61/1.03)
|   |   |   |   |   persons > 4
|   |   |   |   |   |   buying <= 3
|   |   |   |   |   |   |   buying <= 1: acc (89.22/2.31)
|   |   |   |   |   |   |   buying > 1
|   |   |   |   |   |   |   |   lug_boot <= 1: unacc (4.61/0.77)
|   |   |   |   |   |   |   |   lug_boot > 1: acc (47.73/1.54)
|   |   |   |   |   |   buying > 3: unacc (6.92/1.54)
|   |   safety > 2
|   |   |   buying <= 2
|   |   |   |   persons <= 4
|   |   |   |   |   doors <= 3
|   |   |   |   |   |   buying <= 1
|   |   |   |   |   |   |   maint <= 2: good (14.37/0.51)
|   |   |   |   |   |   |   maint > 2: acc (14.37/0.26)
|   |   |   |   |   |   buying > 1: acc (46.87/1.03)
|   |   |   |   |   doors > 3
|   |   |   |   |   |   lug_boot <= 1
|   |   |   |   |   |   |   maint <= 2: good (2.05/0.51)
|   |   |   |   |   |   |   maint > 2: acc (2.05)
|   |   |   |   |   |   lug_boot > 1
|   |   |   |   |   |   |   maint <= 2: vgood (29.77)
|   |   |   |   |   |   |   maint > 2: acc (4.1/1.03)
|   |   |   |   persons > 4
|   |   |   |   |   lug_boot <= 1
|   |   |   |   |   |   maint <= 2: good (3.08/0.77)
|   |   |   |   |   |   maint > 2: acc (3.08)
|   |   |   |   |   lug_boot > 1
|   |   |   |   |   |   maint <= 3: vgood (117.19/1.54)
|   |   |   |   |   |   maint > 3: acc (3.08)
|   |   |   buying > 2
|   |   |   |   maint <= 3
|   |   |   |   |   buying <= 3: acc (167.86)
|   |   |   |   |   buying > 3
|   |   |   |   |   |   maint <= 2: acc (9.23)
|   |   |   |   |   |   maint > 2: unacc (4.61)
|   |   |   |   maint > 3: unacc (9.23)

Number of Leaves  : 	44

Size of the tree : 	87


Weight: 3.65

J48 pruned tree
------------------

buying <= 2
|   safety <= 2
|   |   safety <= 1: unacc (77.25)
|   |   safety > 1
|   |   |   maint <= 2
|   |   |   |   lug_boot <= 1
|   |   |   |   |   doors <= 2
|   |   |   |   |   |   persons <= 4: acc (10.89/0.53)
|   |   |   |   |   |   persons > 4: unacc (26.86)
|   |   |   |   |   doors > 2: acc (53.95/1.58)
|   |   |   |   lug_boot > 1
|   |   |   |   |   doors <= 3
|   |   |   |   |   |   lug_boot <= 2
|   |   |   |   |   |   |   persons <= 4: acc (43.21/1.05)
|   |   |   |   |   |   |   persons > 4
|   |   |   |   |   |   |   |   doors <= 2: acc (16.95)
|   |   |   |   |   |   |   |   doors > 2: good (27.91/0.13)
|   |   |   |   |   |   lug_boot > 2
|   |   |   |   |   |   |   buying <= 1: good (36.03/0.53)
|   |   |   |   |   |   |   buying > 1
|   |   |   |   |   |   |   |   maint <= 1: good (15.55/0.26)
|   |   |   |   |   |   |   |   maint > 1: acc (10.63/0.26)
|   |   |   |   |   doors > 3: good (85.05/3.16)
|   |   |   maint > 2
|   |   |   |   lug_boot <= 2
|   |   |   |   |   buying <= 1
|   |   |   |   |   |   maint <= 3
|   |   |   |   |   |   |   doors <= 2
|   |   |   |   |   |   |   |   lug_boot <= 1: unacc (29.44/6.72)
|   |   |   |   |   |   |   |   lug_boot > 1: acc (13.56/0.13)
|   |   |   |   |   |   |   doors > 2: acc (41.87/0.79)
|   |   |   |   |   |   maint > 3
|   |   |   |   |   |   |   lug_boot <= 1: unacc (31.1)
|   |   |   |   |   |   |   lug_boot > 1
|   |   |   |   |   |   |   |   persons <= 4: unacc (12.56/0.26)
|   |   |   |   |   |   |   |   persons > 4
|   |   |   |   |   |   |   |   |   doors <= 2: unacc (5.05)
|   |   |   |   |   |   |   |   |   doors > 2: acc (22.86)
|   |   |   |   |   buying > 1: unacc (39.17/1.32)
|   |   |   |   lug_boot > 2
|   |   |   |   |   persons <= 2: unacc (2.1)
|   |   |   |   |   persons > 2: acc (28.81)
|   safety > 2
|   |   lug_boot <= 1
|   |   |   maint <= 1
|   |   |   |   persons <= 4: good (11.95/1.05)
|   |   |   |   persons > 4: unacc (14.22/0.79)
|   |   |   maint > 1
|   |   |   |   persons <= 4
|   |   |   |   |   persons <= 2: unacc (3.16)
|   |   |   |   |   persons > 2: acc (40.38/0.53)
|   |   |   |   persons > 4
|   |   |   |   |   doors <= 2: unacc (40.3)
|   |   |   |   |   doors > 2: acc (17.13/0.39)
|   |   lug_boot > 1
|   |   |   persons <= 2: unacc (8.42)
|   |   |   persons > 2
|   |   |   |   maint <= 2
|   |   |   |   |   lug_boot <= 2
|   |   |   |   |   |   doors <= 2: good (24.06/0.26)
|   |   |   |   |   |   doors > 2
|   |   |   |   |   |   |   persons <= 4
|   |   |   |   |   |   |   |   doors <= 3
|   |   |   |   |   |   |   |   |   buying <= 1: good (6.85)
|   |   |   |   |   |   |   |   |   buying > 1: acc (27.65/5.05)
|   |   |   |   |   |   |   |   doors > 3: vgood (14.22)
|   |   |   |   |   |   |   persons > 4: vgood (34.5)
|   |   |   |   |   lug_boot > 2: vgood (63.26)
|   |   |   |   maint > 2
|   |   |   |   |   buying <= 1
|   |   |   |   |   |   lug_boot <= 2
|   |   |   |   |   |   |   doors <= 2: acc (13.69)
|   |   |   |   |   |   |   doors > 2
|   |   |   |   |   |   |   |   persons <= 4
|   |   |   |   |   |   |   |   |   doors <= 3: acc (6.85)
|   |   |   |   |   |   |   |   |   doors > 3: vgood (10.37/0.26)
|   |   |   |   |   |   |   |   persons > 4: vgood (23.25/0.39)
|   |   |   |   |   |   lug_boot > 2: vgood (26.71/1.05)
|   |   |   |   |   buying > 1: acc (43.58)
buying > 2
|   maint <= 3
|   |   persons <= 2: unacc (28.41)
|   |   persons > 2
|   |   |   lug_boot <= 1
|   |   |   |   safety <= 2: unacc (91.36)
|   |   |   |   safety > 2
|   |   |   |   |   doors <= 2
|   |   |   |   |   |   persons <= 4
|   |   |   |   |   |   |   buying <= 3: acc (6.98)
|   |   |   |   |   |   |   buying > 3: unacc (5.32/0.26)
|   |   |   |   |   |   persons > 4: unacc (49.59)
|   |   |   |   |   doors > 2: acc (44.24/0.79)
|   |   |   lug_boot > 1
|   |   |   |   doors <= 3
|   |   |   |   |   maint <= 2
|   |   |   |   |   |   lug_boot <= 2
|   |   |   |   |   |   |   persons <= 4: unacc (13.0/1.05)
|   |   |   |   |   |   |   persons > 4: acc (8.08/1.58)
|   |   |   |   |   |   lug_boot > 2
|   |   |   |   |   |   |   safety <= 1: unacc (2.1)
|   |   |   |   |   |   |   safety > 1: acc (48.5)
|   |   |   |   |   maint > 2
|   |   |   |   |   |   buying <= 3
|   |   |   |   |   |   |   safety <= 2
|   |   |   |   |   |   |   |   lug_boot <= 2
|   |   |   |   |   |   |   |   |   doors <= 2: unacc (45.46)
|   |   |   |   |   |   |   |   |   doors > 2
|   |   |   |   |   |   |   |   |   |   persons <= 4: unacc (22.73)
|   |   |   |   |   |   |   |   |   |   persons > 4: acc (6.85/0.13)
|   |   |   |   |   |   |   |   lug_boot > 2: acc (10.89/0.53)
|   |   |   |   |   |   |   safety > 2: acc (27.39)
|   |   |   |   |   |   buying > 3: unacc (27.76)
|   |   |   |   doors > 3
|   |   |   |   |   safety <= 1: unacc (6.31)
|   |   |   |   |   safety > 1
|   |   |   |   |   |   buying <= 3: acc (58.99)
|   |   |   |   |   |   buying > 3
|   |   |   |   |   |   |   maint <= 2: acc (43.58)
|   |   |   |   |   |   |   maint > 2: unacc (2.1)
|   maint > 3: unacc (116.99)

Number of Leaves  : 	61

Size of the tree : 	121


Weight: 4.01

J48 pruned tree
------------------

persons <= 2: unacc (266.49)
persons > 2
|   buying <= 2
|   |   maint <= 2
|   |   |   safety <= 2
|   |   |   |   safety <= 1: unacc (16.45)
|   |   |   |   safety > 1
|   |   |   |   |   lug_boot <= 1
|   |   |   |   |   |   doors <= 2
|   |   |   |   |   |   |   persons <= 4: acc (5.28)
|   |   |   |   |   |   |   persons > 4: unacc (13.68)
|   |   |   |   |   |   doors > 2: acc (26.66)
|   |   |   |   |   lug_boot > 1
|   |   |   |   |   |   buying <= 1
|   |   |   |   |   |   |   lug_boot <= 2
|   |   |   |   |   |   |   |   doors <= 3
|   |   |   |   |   |   |   |   |   persons <= 4: acc (10.32)
|   |   |   |   |   |   |   |   |   persons > 4
|   |   |   |   |   |   |   |   |   |   doors <= 2: acc (3.49)
|   |   |   |   |   |   |   |   |   |   doors > 2: good (2.64)
|   |   |   |   |   |   |   |   doors > 3: good (15.57)
|   |   |   |   |   |   |   lug_boot > 2: good (33.64)
|   |   |   |   |   |   buying > 1
|   |   |   |   |   |   |   maint <= 1
|   |   |   |   |   |   |   |   lug_boot <= 2
|   |   |   |   |   |   |   |   |   doors <= 2: acc (5.14)
|   |   |   |   |   |   |   |   |   doors > 2: good (20.2/3.42)
|   |   |   |   |   |   |   |   lug_boot > 2: good (13.06)
|   |   |   |   |   |   |   maint > 1: acc (46.16)
|   |   |   safety > 2
|   |   |   |   lug_boot <= 2
|   |   |   |   |   maint <= 1
|   |   |   |   |   |   doors <= 2
|   |   |   |   |   |   |   persons <= 4: good (5.28)
|   |   |   |   |   |   |   persons > 4
|   |   |   |   |   |   |   |   lug_boot <= 1: unacc (6.84)
|   |   |   |   |   |   |   |   lug_boot > 1: good (2.64)
|   |   |   |   |   |   doors > 2
|   |   |   |   |   |   |   persons <= 4: good (144.79/0.27)
|   |   |   |   |   |   |   persons > 4
|   |   |   |   |   |   |   |   lug_boot <= 1: good (22.11)
|   |   |   |   |   |   |   |   lug_boot > 1: vgood (7.11)
|   |   |   |   |   maint > 1
|   |   |   |   |   |   buying <= 1: good (39.8/3.75)
|   |   |   |   |   |   buying > 1
|   |   |   |   |   |   |   lug_boot <= 1
|   |   |   |   |   |   |   |   persons <= 4: acc (16.71)
|   |   |   |   |   |   |   |   persons > 4
|   |   |   |   |   |   |   |   |   doors <= 2: unacc (3.42)
|   |   |   |   |   |   |   |   |   doors > 2: acc (7.72)
|   |   |   |   |   |   |   lug_boot > 1
|   |   |   |   |   |   |   |   doors <= 3: acc (22.29/3.42)
|   |   |   |   |   |   |   |   doors > 3: vgood (13.68)
|   |   |   |   lug_boot > 2: vgood (32.21)
|   |   maint > 2
|   |   |   safety <= 2
|   |   |   |   safety <= 1: unacc (16.45)
|   |   |   |   safety > 1
|   |   |   |   |   maint <= 3
|   |   |   |   |   |   persons <= 4
|   |   |   |   |   |   |   buying <= 1: acc (202.29)
|   |   |   |   |   |   |   buying > 1
|   |   |   |   |   |   |   |   lug_boot <= 1: unacc (5.28)
|   |   |   |   |   |   |   |   lug_boot > 1
|   |   |   |   |   |   |   |   |   doors <= 3
|   |   |   |   |   |   |   |   |   |   lug_boot <= 2: unacc (3.49)
|   |   |   |   |   |   |   |   |   |   lug_boot > 2: acc (2.64)
|   |   |   |   |   |   |   |   |   doors > 3: acc (7.5)
|   |   |   |   |   |   persons > 4
|   |   |   |   |   |   |   doors <= 2
|   |   |   |   |   |   |   |   lug_boot <= 1: unacc (11.57)
|   |   |   |   |   |   |   |   lug_boot > 1: acc (6.13/0.07)
|   |   |   |   |   |   |   doors > 2: acc (22.11/0.2)
|   |   |   |   |   maint > 3
|   |   |   |   |   |   lug_boot <= 1: unacc (21.11)
|   |   |   |   |   |   lug_boot > 1
|   |   |   |   |   |   |   doors <= 3
|   |   |   |   |   |   |   |   persons <= 4
|   |   |   |   |   |   |   |   |   lug_boot <= 2: unacc (9.48)
|   |   |   |   |   |   |   |   |   lug_boot > 2: acc (5.28)
|   |   |   |   |   |   |   |   persons > 4
|   |   |   |   |   |   |   |   |   doors <= 2
|   |   |   |   |   |   |   |   |   |   lug_boot <= 2: unacc (2.64)
|   |   |   |   |   |   |   |   |   |   lug_boot > 2: acc (2.64)
|   |   |   |   |   |   |   |   |   doors > 2: acc (15.32)
|   |   |   |   |   |   |   doors > 3: acc (22.78)
|   |   |   safety > 2
|   |   |   |   lug_boot <= 1
|   |   |   |   |   persons <= 4: acc (3.58)
|   |   |   |   |   persons > 4: unacc (14.48/0.8)
|   |   |   |   lug_boot > 1
|   |   |   |   |   maint <= 3
|   |   |   |   |   |   buying <= 1
|   |   |   |   |   |   |   lug_boot <= 2
|   |   |   |   |   |   |   |   doors <= 2: acc (6.84)
|   |   |   |   |   |   |   |   doors > 2: vgood (20.2/3.42)
|   |   |   |   |   |   |   lug_boot > 2: vgood (13.06)
|   |   |   |   |   |   buying > 1: acc (16.1)
|   |   |   |   |   maint > 3: acc (54.19)
|   buying > 2
|   |   safety <= 1: unacc (59.89)
|   |   safety > 1
|   |   |   maint <= 3
|   |   |   |   lug_boot <= 1
|   |   |   |   |   safety <= 2: unacc (43.3)
|   |   |   |   |   safety > 2
|   |   |   |   |   |   persons <= 4
|   |   |   |   |   |   |   buying <= 3: acc (14.21)
|   |   |   |   |   |   |   buying > 3
|   |   |   |   |   |   |   |   maint <= 2: acc (7.77)
|   |   |   |   |   |   |   |   maint > 2: unacc (13.63)
|   |   |   |   |   |   persons > 4
|   |   |   |   |   |   |   doors <= 2: unacc (25.25)
|   |   |   |   |   |   |   doors > 2
|   |   |   |   |   |   |   |   buying <= 3: acc (10.66)
|   |   |   |   |   |   |   |   buying > 3: unacc (11.46/0.4)
|   |   |   |   lug_boot > 1
|   |   |   |   |   doors <= 3
|   |   |   |   |   |   safety <= 2
|   |   |   |   |   |   |   lug_boot <= 2
|   |   |   |   |   |   |   |   doors <= 2: unacc (38.15)
|   |   |   |   |   |   |   |   doors > 2
|   |   |   |   |   |   |   |   |   persons <= 4: unacc (16.85)
|   |   |   |   |   |   |   |   |   persons > 4: acc (6.26/0.07)
|   |   |   |   |   |   |   lug_boot > 2
|   |   |   |   |   |   |   |   doors <= 2: acc (25.86/0.13)
|   |   |   |   |   |   |   |   doors > 2
|   |   |   |   |   |   |   |   |   maint <= 2: acc (3.04)
|   |   |   |   |   |   |   |   |   maint > 2: unacc (2.77/0.13)
|   |   |   |   |   |   safety > 2
|   |   |   |   |   |   |   buying <= 3: acc (29.49)
|   |   |   |   |   |   |   buying > 3
|   |   |   |   |   |   |   |   maint <= 2: acc (15.54)
|   |   |   |   |   |   |   |   maint > 2: unacc (10.56)
|   |   |   |   |   doors > 3: acc (53.29/1.07)
|   |   |   maint > 3: unacc (51.52)

Number of Leaves  : 	69

Size of the tree : 	137


Weight: 4.6

J48 pruned tree
------------------

maint <= 2
|   lug_boot <= 1
|   |   buying <= 1
|   |   |   doors <= 2: unacc (185.13/1.96)
|   |   |   doors > 2
|   |   |   |   persons <= 2: unacc (17.05)
|   |   |   |   persons > 2
|   |   |   |   |   safety <= 2: acc (4.61/0.41)
|   |   |   |   |   safety > 2: good (16.85)
|   |   buying > 1
|   |   |   persons <= 2: unacc (24.36)
|   |   |   persons > 2
|   |   |   |   safety <= 2
|   |   |   |   |   buying <= 2
|   |   |   |   |   |   doors <= 2
|   |   |   |   |   |   |   persons <= 4: acc (2.67/0.07)
|   |   |   |   |   |   |   persons > 4: unacc (3.52)
|   |   |   |   |   |   doors > 2: acc (9.67/0.41)
|   |   |   |   |   buying > 2: unacc (19.88)
|   |   |   |   safety > 2
|   |   |   |   |   doors <= 2
|   |   |   |   |   |   persons <= 4: acc (10.9/1.3)
|   |   |   |   |   |   persons > 4: unacc (10.36)
|   |   |   |   |   doors > 2
|   |   |   |   |   |   buying <= 2
|   |   |   |   |   |   |   maint <= 1: good (6.95)
|   |   |   |   |   |   |   maint > 1: acc (6.53)
|   |   |   |   |   |   buying > 2: acc (20.84)
|   lug_boot > 1
|   |   safety <= 2
|   |   |   persons <= 2: unacc (62.79)
|   |   |   persons > 2
|   |   |   |   safety <= 1: unacc (24.01)
|   |   |   |   safety > 1
|   |   |   |   |   buying <= 1
|   |   |   |   |   |   lug_boot <= 2
|   |   |   |   |   |   |   doors <= 3: acc (8.31/1.33)
|   |   |   |   |   |   |   doors > 3: good (7.86)
|   |   |   |   |   |   lug_boot > 2: good (16.99)
|   |   |   |   |   buying > 1
|   |   |   |   |   |   buying <= 2
|   |   |   |   |   |   |   lug_boot <= 2
|   |   |   |   |   |   |   |   persons <= 4: acc (182.38/2.6)
|   |   |   |   |   |   |   |   persons > 4
|   |   |   |   |   |   |   |   |   maint <= 1: good (7.18/1.3)
|   |   |   |   |   |   |   |   |   maint > 1: acc (6.88)
|   |   |   |   |   |   |   lug_boot > 2
|   |   |   |   |   |   |   |   maint <= 1: good (6.6)
|   |   |   |   |   |   |   |   maint > 1: acc (10.11)
|   |   |   |   |   |   buying > 2
|   |   |   |   |   |   |   lug_boot <= 2
|   |   |   |   |   |   |   |   doors <= 3: unacc (11.64/1.4)
|   |   |   |   |   |   |   |   doors > 3: acc (5.6)
|   |   |   |   |   |   |   lug_boot > 2: acc (17.53)
|   |   safety > 2
|   |   |   persons <= 4
|   |   |   |   buying <= 2
|   |   |   |   |   doors <= 3
|   |   |   |   |   |   lug_boot <= 2
|   |   |   |   |   |   |   maint <= 1: good (72.99/0.14)
|   |   |   |   |   |   |   maint > 1
|   |   |   |   |   |   |   |   buying <= 1: good (3.52/0.07)
|   |   |   |   |   |   |   |   buying > 1: acc (7.74/0.07)
|   |   |   |   |   |   lug_boot > 2: vgood (10.66/0.27)
|   |   |   |   |   doors > 3: vgood (24.5/0.54)
|   |   |   |   buying > 2: acc (16.78/1.08)
|   |   |   persons > 4
|   |   |   |   doors <= 2
|   |   |   |   |   lug_boot <= 2: good (5.06/2.0)
|   |   |   |   |   lug_boot > 2: vgood (5.33/0.14)
|   |   |   |   doors > 2: vgood (190.54/0.81)
maint > 2
|   buying <= 2
|   |   persons <= 2: unacc (17.66)
|   |   persons > 2
|   |   |   safety <= 2
|   |   |   |   safety <= 1: unacc (8.31)
|   |   |   |   safety > 1
|   |   |   |   |   persons <= 4
|   |   |   |   |   |   maint <= 3
|   |   |   |   |   |   |   buying <= 1: acc (102.16)
|   |   |   |   |   |   |   buying > 1
|   |   |   |   |   |   |   |   lug_boot <= 1: unacc (2.67)
|   |   |   |   |   |   |   |   lug_boot > 1: acc (6.88/1.76)
|   |   |   |   |   |   maint > 3
|   |   |   |   |   |   |   lug_boot <= 1: unacc (6.6)
|   |   |   |   |   |   |   lug_boot > 1
|   |   |   |   |   |   |   |   doors <= 3
|   |   |   |   |   |   |   |   |   lug_boot <= 2: unacc (4.79)
|   |   |   |   |   |   |   |   |   lug_boot > 2: acc (2.67)
|   |   |   |   |   |   |   |   doors > 3: acc (7.58)
|   |   |   |   |   persons > 4
|   |   |   |   |   |   lug_boot <= 1
|   |   |   |   |   |   |   buying <= 1
|   |   |   |   |   |   |   |   doors <= 2: unacc (5.84)
|   |   |   |   |   |   |   |   doors > 2
|   |   |   |   |   |   |   |   |   maint <= 3: acc (5.18)
|   |   |   |   |   |   |   |   |   maint > 3: unacc (3.9)
|   |   |   |   |   |   |   buying > 1: unacc (10.28)
|   |   |   |   |   |   lug_boot > 1
|   |   |   |   |   |   |   doors <= 2
|   |   |   |   |   |   |   |   lug_boot <= 2: unacc (6.43/1.73)
|   |   |   |   |   |   |   |   lug_boot > 2: acc (2.67)
|   |   |   |   |   |   |   doors > 2: acc (17.55)
|   |   |   safety > 2
|   |   |   |   doors <= 2
|   |   |   |   |   lug_boot <= 1: unacc (8.31/1.4)
|   |   |   |   |   lug_boot > 1
|   |   |   |   |   |   maint <= 3
|   |   |   |   |   |   |   lug_boot <= 2: acc (3.52)
|   |   |   |   |   |   |   lug_boot > 2: vgood (2.67/0.07)
|   |   |   |   |   |   maint > 3: acc (6.46)
|   |   |   |   doors > 2
|   |   |   |   |   persons <= 4
|   |   |   |   |   |   doors <= 3: acc (175.63/1.3)
|   |   |   |   |   |   doors > 3
|   |   |   |   |   |   |   maint <= 3: vgood (5.47/0.27)
|   |   |   |   |   |   |   maint > 3: acc (7.71)
|   |   |   |   |   persons > 4
|   |   |   |   |   |   lug_boot <= 1: acc (40.46)
|   |   |   |   |   |   lug_boot > 1
|   |   |   |   |   |   |   maint <= 3
|   |   |   |   |   |   |   |   buying <= 1: vgood (5.98)
|   |   |   |   |   |   |   |   buying > 1: acc (7.79)
|   |   |   |   |   |   |   maint > 3: acc (11.37)
|   buying > 2
|   |   buying <= 3
|   |   |   maint <= 3
|   |   |   |   safety <= 1: unacc (10.35)
|   |   |   |   safety > 1
|   |   |   |   |   doors <= 2
|   |   |   |   |   |   lug_boot <= 2
|   |   |   |   |   |   |   safety <= 2: unacc (11.75)
|   |   |   |   |   |   |   safety > 2
|   |   |   |   |   |   |   |   lug_boot <= 1: unacc (7.57/1.73)
|   |   |   |   |   |   |   |   lug_boot > 1: acc (3.49/0.03)
|   |   |   |   |   |   lug_boot > 2: acc (2.73/0.07)
|   |   |   |   |   doors > 2
|   |   |   |   |   |   persons <= 4
|   |   |   |   |   |   |   safety <= 2
|   |   |   |   |   |   |   |   lug_boot <= 2
|   |   |   |   |   |   |   |   |   doors <= 3: unacc (5.91)
|   |   |   |   |   |   |   |   |   doors > 3
|   |   |   |   |   |   |   |   |   |   lug_boot <= 1: unacc (2.67)
|   |   |   |   |   |   |   |   |   |   lug_boot > 1: acc (3.52/0.07)
|   |   |   |   |   |   |   |   lug_boot > 2: acc (3.54/0.1)
|   |   |   |   |   |   |   safety > 2: acc (10.77/0.3)
|   |   |   |   |   |   persons > 4: acc (19.18/0.1)
|   |   |   maint > 3: unacc (22.63)
|   |   buying > 3: unacc (93.08)

Number of Leaves  : 	76

Size of the tree : 	151


Weight: 4.23

J48 pruned tree
------------------

persons <= 2: unacc (162.28)
persons > 2
|   maint <= 2
|   |   lug_boot <= 1
|   |   |   persons <= 4
|   |   |   |   safety <= 2
|   |   |   |   |   safety <= 1: unacc (16.8)
|   |   |   |   |   safety > 1
|   |   |   |   |   |   buying <= 2: acc (4.52)
|   |   |   |   |   |   buying > 2: unacc (5.41)
|   |   |   |   safety > 2
|   |   |   |   |   buying <= 1: good (68.88)
|   |   |   |   |   buying > 1
|   |   |   |   |   |   maint <= 1: good (47.0/1.06)
|   |   |   |   |   |   maint > 1: acc (5.35)
|   |   |   persons > 4
|   |   |   |   doors <= 2: unacc (97.18)
|   |   |   |   doors > 2
|   |   |   |   |   safety <= 2
|   |   |   |   |   |   safety <= 1: unacc (14.34)
|   |   |   |   |   |   safety > 1
|   |   |   |   |   |   |   buying <= 2: acc (5.98)
|   |   |   |   |   |   |   buying > 2: unacc (4.06)
|   |   |   |   |   safety > 2
|   |   |   |   |   |   buying <= 2: good (10.47/1.98)
|   |   |   |   |   |   buying > 2: acc (10.37)
|   |   lug_boot > 1
|   |   |   buying <= 2
|   |   |   |   safety <= 2
|   |   |   |   |   doors <= 3
|   |   |   |   |   |   buying <= 1
|   |   |   |   |   |   |   safety <= 1: unacc (2.84)
|   |   |   |   |   |   |   safety > 1
|   |   |   |   |   |   |   |   persons <= 4
|   |   |   |   |   |   |   |   |   lug_boot <= 2: acc (2.64)
|   |   |   |   |   |   |   |   |   lug_boot > 2: good (2.64)
|   |   |   |   |   |   |   |   persons > 4: good (49.31/0.89)
|   |   |   |   |   |   buying > 1: acc (142.73/5.22)
|   |   |   |   |   doors > 3
|   |   |   |   |   |   maint <= 1: good (94.86/0.27)
|   |   |   |   |   |   maint > 1
|   |   |   |   |   |   |   buying <= 1: good (5.41/0.14)
|   |   |   |   |   |   |   buying > 1: acc (7.69/0.14)
|   |   |   |   safety > 2
|   |   |   |   |   doors <= 2
|   |   |   |   |   |   lug_boot <= 2: acc (68.86/3.1)
|   |   |   |   |   |   lug_boot > 2: vgood (5.27)
|   |   |   |   |   doors > 2
|   |   |   |   |   |   maint <= 1
|   |   |   |   |   |   |   doors <= 3: good (39.38/3.1)
|   |   |   |   |   |   |   doors > 3: vgood (7.05)
|   |   |   |   |   |   maint > 1: vgood (104.71/3.82)
|   |   |   buying > 2
|   |   |   |   safety <= 1: unacc (8.51)
|   |   |   |   safety > 1
|   |   |   |   |   doors <= 2
|   |   |   |   |   |   safety <= 2
|   |   |   |   |   |   |   lug_boot <= 2: unacc (3.84)
|   |   |   |   |   |   |   lug_boot > 2: acc (5.27)
|   |   |   |   |   |   safety > 2: acc (13.27)
|   |   |   |   |   doors > 2: acc (88.98/1.35)
|   maint > 2
|   |   lug_boot <= 2
|   |   |   buying <= 1
|   |   |   |   maint <= 3
|   |   |   |   |   persons <= 4: acc (144.97/1.46)
|   |   |   |   |   persons > 4
|   |   |   |   |   |   lug_boot <= 1
|   |   |   |   |   |   |   doors <= 2: unacc (3.84)
|   |   |   |   |   |   |   doors > 2: acc (7.81/0.05)
|   |   |   |   |   |   lug_boot > 1: acc (64.76/3.69)
|   |   |   |   maint > 3
|   |   |   |   |   safety <= 2
|   |   |   |   |   |   lug_boot <= 1: unacc (4.13)
|   |   |   |   |   |   lug_boot > 1: acc (7.84/2.97)
|   |   |   |   |   safety > 2: acc (12.01/0.88)
|   |   |   buying > 1
|   |   |   |   safety <= 2
|   |   |   |   |   doors <= 3: unacc (83.1/2.76)
|   |   |   |   |   doors > 3
|   |   |   |   |   |   lug_boot <= 1: unacc (11.67)
|   |   |   |   |   |   lug_boot > 1
|   |   |   |   |   |   |   buying <= 3
|   |   |   |   |   |   |   |   buying <= 2: acc (7.69/0.14)
|   |   |   |   |   |   |   |   buying > 2
|   |   |   |   |   |   |   |   |   maint <= 3: acc (3.57/0.07)
|   |   |   |   |   |   |   |   |   maint > 3: unacc (2.7)
|   |   |   |   |   |   |   buying > 3: unacc (7.05)
|   |   |   |   safety > 2
|   |   |   |   |   buying <= 3
|   |   |   |   |   |   persons <= 4: acc (118.36/0.14)
|   |   |   |   |   |   persons > 4
|   |   |   |   |   |   |   doors <= 2: unacc (6.29/0.91)
|   |   |   |   |   |   |   doors > 2: acc (17.65/0.1)
|   |   |   |   |   buying > 3: unacc (15.45)
|   |   lug_boot > 2
|   |   |   buying <= 1
|   |   |   |   maint <= 3: vgood (48.85/0.92)
|   |   |   |   maint > 3: acc (9.11/0.78)
|   |   |   buying > 1
|   |   |   |   buying <= 2: acc (10.6/0.27)
|   |   |   |   buying > 2
|   |   |   |   |   buying <= 3
|   |   |   |   |   |   maint <= 3
|   |   |   |   |   |   |   safety <= 1: unacc (3.84)
|   |   |   |   |   |   |   safety > 1: acc (4.94)
|   |   |   |   |   |   maint > 3: unacc (4.9)
|   |   |   |   |   buying > 3: unacc (20.97)

Number of Leaves  : 	55

Size of the tree : 	109


Weight: 3.84

J48 pruned tree
------------------

maint <= 2
|   persons <= 2: unacc (66.97)
|   persons > 2
|   |   buying <= 2
|   |   |   safety <= 1: unacc (36.79)
|   |   |   safety > 1
|   |   |   |   lug_boot <= 1
|   |   |   |   |   persons <= 4
|   |   |   |   |   |   safety <= 2: acc (2.31)
|   |   |   |   |   |   safety > 2
|   |   |   |   |   |   |   buying <= 1: good (35.18)
|   |   |   |   |   |   |   buying > 1
|   |   |   |   |   |   |   |   maint <= 1: good (23.46)
|   |   |   |   |   |   |   |   maint > 1: acc (2.19)
|   |   |   |   |   persons > 4
|   |   |   |   |   |   doors <= 2: unacc (47.73)
|   |   |   |   |   |   doors > 2
|   |   |   |   |   |   |   buying <= 1: good (3.93/1.04)
|   |   |   |   |   |   |   buying > 1: acc (50.62/1.45)
|   |   |   |   lug_boot > 1
|   |   |   |   |   safety <= 2
|   |   |   |   |   |   lug_boot <= 2
|   |   |   |   |   |   |   doors <= 2: acc (45.88)
|   |   |   |   |   |   |   doors > 2
|   |   |   |   |   |   |   |   persons <= 4
|   |   |   |   |   |   |   |   |   doors <= 3: acc (45.83)
|   |   |   |   |   |   |   |   |   doors > 3: good (48.52/0.96)
|   |   |   |   |   |   |   |   persons > 4: good (96.16/1.45)
|   |   |   |   |   |   lug_boot > 2
|   |   |   |   |   |   |   maint <= 1: good (49.97)
|   |   |   |   |   |   |   maint > 1
|   |   |   |   |   |   |   |   buying <= 1: good (2.69)
|   |   |   |   |   |   |   |   buying > 1: acc (2.62)
|   |   |   |   |   safety > 2
|   |   |   |   |   |   doors <= 2
|   |   |   |   |   |   |   buying <= 1: good (43.95/1.35)
|   |   |   |   |   |   |   buying > 1
|   |   |   |   |   |   |   |   maint <= 1: good (32.11/0.67)
|   |   |   |   |   |   |   |   maint > 1: acc (34.26/0.67)
|   |   |   |   |   |   doors > 2
|   |   |   |   |   |   |   persons <= 4
|   |   |   |   |   |   |   |   lug_boot <= 2
|   |   |   |   |   |   |   |   |   buying <= 1
|   |   |   |   |   |   |   |   |   |   doors <= 3: good (20.9)
|   |   |   |   |   |   |   |   |   |   doors > 3: vgood (3.49)
|   |   |   |   |   |   |   |   |   buying > 1
|   |   |   |   |   |   |   |   |   |   maint <= 1: good (20.27/1.75)
|   |   |   |   |   |   |   |   |   |   maint > 1: acc (71.2/0.89)
|   |   |   |   |   |   |   |   lug_boot > 2: vgood (32.18)
|   |   |   |   |   |   |   persons > 4: vgood (90.85)
|   |   buying > 2
|   |   |   safety <= 2
|   |   |   |   maint <= 1: unacc (41.53/2.72)
|   |   |   |   maint > 1
|   |   |   |   |   safety <= 1: unacc (2.31)
|   |   |   |   |   safety > 1: acc (30.78/2.6)
|   |   |   safety > 2: acc (56.33/1.79)
maint > 2
|   safety <= 2
|   |   safety <= 1: unacc (92.96)
|   |   safety > 1
|   |   |   persons <= 4
|   |   |   |   lug_boot <= 1
|   |   |   |   |   doors <= 2: acc (25.08/0.46)
|   |   |   |   |   doors > 2: unacc (6.43/1.34)
|   |   |   |   lug_boot > 1
|   |   |   |   |   lug_boot <= 2
|   |   |   |   |   |   doors <= 3: unacc (72.99/0.46)
|   |   |   |   |   |   doors > 3
|   |   |   |   |   |   |   persons <= 2: unacc (2.27)
|   |   |   |   |   |   |   persons > 2
|   |   |   |   |   |   |   |   buying <= 2: acc (2.91)
|   |   |   |   |   |   |   |   buying > 2: unacc (3.33/0.89)
|   |   |   |   |   lug_boot > 2
|   |   |   |   |   |   buying <= 2: acc (2.87/0.14)
|   |   |   |   |   |   buying > 2: unacc (8.08/1.23)
|   |   |   persons > 4
|   |   |   |   buying <= 3
|   |   |   |   |   lug_boot <= 1: unacc (8.38/1.34)
|   |   |   |   |   lug_boot > 1
|   |   |   |   |   |   maint <= 3: acc (81.62/2.38)
|   |   |   |   |   |   maint > 3
|   |   |   |   |   |   |   doors <= 2: unacc (16.09/0.35)
|   |   |   |   |   |   |   doors > 2
|   |   |   |   |   |   |   |   buying <= 2: acc (25.06)
|   |   |   |   |   |   |   |   buying > 2: unacc (2.02)
|   |   |   |   buying > 3: unacc (5.4)
|   safety > 2
|   |   buying <= 1
|   |   |   doors <= 2
|   |   |   |   lug_boot <= 1: unacc (22.56/1.2)
|   |   |   |   lug_boot > 1: acc (2.58/0.71)
|   |   |   doors > 2
|   |   |   |   maint <= 3
|   |   |   |   |   persons <= 4
|   |   |   |   |   |   doors <= 3
|   |   |   |   |   |   |   lug_boot <= 2: acc (44.63/0.02)
|   |   |   |   |   |   |   lug_boot > 2: vgood (23.12/0.01)
|   |   |   |   |   |   doors > 3: vgood (33.37/1.26)
|   |   |   |   |   persons > 4
|   |   |   |   |   |   lug_boot <= 1: acc (2.62)
|   |   |   |   |   |   lug_boot > 1: vgood (71.15)
|   |   |   |   maint > 3: acc (8.04/0.08)
|   |   buying > 1
|   |   |   buying <= 3
|   |   |   |   persons <= 2: unacc (6.94)
|   |   |   |   persons > 2
|   |   |   |   |   maint <= 3: acc (69.94/1.95)
|   |   |   |   |   maint > 3
|   |   |   |   |   |   buying <= 2: acc (27.4/0.45)
|   |   |   |   |   |   buying > 2: unacc (6.47)
|   |   |   buying > 3: unacc (12.68)

Number of Leaves  : 	57

Size of the tree : 	113


Weight: 3.98

J48 pruned tree
------------------

buying <= 2
|   safety <= 2
|   |   safety <= 1: unacc (63.63)
|   |   safety > 1
|   |   |   maint <= 2
|   |   |   |   persons <= 2: unacc (11.79)
|   |   |   |   persons > 2
|   |   |   |   |   lug_boot <= 2
|   |   |   |   |   |   lug_boot <= 1: acc (31.44/0.91)
|   |   |   |   |   |   lug_boot > 1
|   |   |   |   |   |   |   maint <= 1
|   |   |   |   |   |   |   |   doors <= 2: acc (12.15)
|   |   |   |   |   |   |   |   doors > 2
|   |   |   |   |   |   |   |   |   persons <= 4
|   |   |   |   |   |   |   |   |   |   doors <= 3: acc (22.94)
|   |   |   |   |   |   |   |   |   |   doors > 3: good (23.88)
|   |   |   |   |   |   |   |   |   persons > 4: good (36.13)
|   |   |   |   |   |   |   maint > 1
|   |   |   |   |   |   |   |   buying <= 1
|   |   |   |   |   |   |   |   |   doors <= 2: acc (10.87)
|   |   |   |   |   |   |   |   |   doors > 2: good (12.68/0.23)
|   |   |   |   |   |   |   |   buying > 1: acc (66.44)
|   |   |   |   |   lug_boot > 2: good (28.15/1.33)
|   |   |   maint > 2
|   |   |   |   lug_boot <= 1
|   |   |   |   |   maint <= 3: acc (89.86/3.92)
|   |   |   |   |   maint > 3: unacc (11.18)
|   |   |   |   lug_boot > 1
|   |   |   |   |   persons <= 4
|   |   |   |   |   |   doors <= 2
|   |   |   |   |   |   |   maint <= 3: acc (13.65/1.04)
|   |   |   |   |   |   |   maint > 3: unacc (8.67/0.18)
|   |   |   |   |   |   doors > 2: unacc (32.72/2.55)
|   |   |   |   |   persons > 4
|   |   |   |   |   |   doors <= 2
|   |   |   |   |   |   |   lug_boot <= 2
|   |   |   |   |   |   |   |   buying <= 1: acc (23.65/8.01)
|   |   |   |   |   |   |   |   buying > 1: unacc (23.89)
|   |   |   |   |   |   |   lug_boot > 2: acc (9.82)
|   |   |   |   |   |   doors > 2: acc (25.37)
|   safety > 2
|   |   lug_boot <= 1
|   |   |   maint <= 1: good (54.98/2.42)
|   |   |   maint > 1
|   |   |   |   persons <= 4
|   |   |   |   |   maint <= 2: good (18.75/1.15)
|   |   |   |   |   maint > 2: acc (80.01/1.48)
|   |   |   |   persons > 4
|   |   |   |   |   doors <= 2: unacc (58.28)
|   |   |   |   |   doors > 2: acc (30.09/0.74)
|   |   lug_boot > 1
|   |   |   persons <= 2: unacc (13.71)
|   |   |   persons > 2
|   |   |   |   lug_boot <= 2
|   |   |   |   |   doors <= 2
|   |   |   |   |   |   buying <= 1: good (22.16/0.46)
|   |   |   |   |   |   buying > 1
|   |   |   |   |   |   |   maint <= 1: good (16.01)
|   |   |   |   |   |   |   maint > 1: acc (17.7)
|   |   |   |   |   doors > 2
|   |   |   |   |   |   doors <= 3
|   |   |   |   |   |   |   persons <= 4
|   |   |   |   |   |   |   |   maint <= 1: good (9.44)
|   |   |   |   |   |   |   |   maint > 1: acc (69.18/10.64)
|   |   |   |   |   |   |   persons > 4: vgood (80.67/0.42)
|   |   |   |   |   |   doors > 3: vgood (93.77/1.96)
|   |   |   |   lug_boot > 2
|   |   |   |   |   maint <= 2: vgood (90.48)
|   |   |   |   |   maint > 2
|   |   |   |   |   |   maint <= 3: vgood (32.28/1.74)
|   |   |   |   |   |   maint > 3: acc (2.17)
buying > 2
|   lug_boot <= 2
|   |   doors <= 2
|   |   |   persons <= 4
|   |   |   |   safety <= 2: unacc (3.87)
|   |   |   |   safety > 2: acc (31.13/2.35)
|   |   |   persons > 4
|   |   |   |   lug_boot <= 1: unacc (90.65)
|   |   |   |   lug_boot > 1
|   |   |   |   |   safety <= 2: unacc (69.03)
|   |   |   |   |   safety > 2: acc (12.38/0.51)
|   |   doors > 2
|   |   |   persons <= 4
|   |   |   |   maint <= 2
|   |   |   |   |   safety <= 2: unacc (60.42/1.31)
|   |   |   |   |   safety > 2
|   |   |   |   |   |   persons <= 2: unacc (3.73)
|   |   |   |   |   |   persons > 2: acc (2.3)
|   |   |   |   maint > 2
|   |   |   |   |   buying <= 3
|   |   |   |   |   |   persons <= 2: unacc (2.58)
|   |   |   |   |   |   persons > 2: acc (29.35/3.52)
|   |   |   |   |   buying > 3: unacc (2.81)
|   |   |   persons > 4
|   |   |   |   lug_boot <= 1
|   |   |   |   |   safety <= 2: unacc (3.53)
|   |   |   |   |   safety > 2: acc (4.75/1.38)
|   |   |   |   lug_boot > 1
|   |   |   |   |   doors <= 3: acc (59.15/2.08)
|   |   |   |   |   doors > 3
|   |   |   |   |   |   maint <= 2: acc (3.8/0.04)
|   |   |   |   |   |   maint > 2: unacc (3.91/0.91)
|   lug_boot > 2
|   |   persons <= 2: unacc (7.67)
|   |   persons > 2
|   |   |   doors <= 3: acc (78.29/3.43)
|   |   |   doors > 3
|   |   |   |   maint <= 2: acc (5.18/0.07)
|   |   |   |   maint > 2: unacc (4.88/0.51)

Number of Leaves  : 	56

Size of the tree : 	111


Weight: 3.41

J48 pruned tree
------------------

maint <= 2
|   persons <= 2: unacc (66.63)
|   persons > 2
|   |   buying <= 2
|   |   |   safety <= 2
|   |   |   |   safety <= 1: unacc (9.68)
|   |   |   |   safety > 1
|   |   |   |   |   lug_boot <= 1
|   |   |   |   |   |   doors <= 2: unacc (14.74/0.49)
|   |   |   |   |   |   doors > 2: acc (15.28)
|   |   |   |   |   lug_boot > 1
|   |   |   |   |   |   maint <= 1
|   |   |   |   |   |   |   lug_boot <= 2
|   |   |   |   |   |   |   |   doors <= 2: acc (6.28)
|   |   |   |   |   |   |   |   doors > 2
|   |   |   |   |   |   |   |   |   persons <= 4
|   |   |   |   |   |   |   |   |   |   doors <= 3: acc (11.85)
|   |   |   |   |   |   |   |   |   |   doors > 3: good (12.33)
|   |   |   |   |   |   |   |   |   persons > 4: good (18.66)
|   |   |   |   |   |   |   lug_boot > 2: good (13.15)
|   |   |   |   |   |   maint > 1
|   |   |   |   |   |   |   buying <= 1
|   |   |   |   |   |   |   |   doors <= 2: acc (5.79/0.18)
|   |   |   |   |   |   |   |   doors > 2
|   |   |   |   |   |   |   |   |   persons <= 4: acc (4.0/0.44)
|   |   |   |   |   |   |   |   |   persons > 4: good (6.52)
|   |   |   |   |   |   |   buying > 1: acc (55.16)
|   |   |   safety > 2
|   |   |   |   lug_boot <= 2
|   |   |   |   |   buying <= 1
|   |   |   |   |   |   persons <= 4: good (182.09/0.92)
|   |   |   |   |   |   persons > 4
|   |   |   |   |   |   |   doors <= 2
|   |   |   |   |   |   |   |   lug_boot <= 1: unacc (15.29)
|   |   |   |   |   |   |   |   lug_boot > 1: good (5.6)
|   |   |   |   |   |   |   doors > 2
|   |   |   |   |   |   |   |   lug_boot <= 1: good (11.89)
|   |   |   |   |   |   |   |   lug_boot > 1: vgood (6.19)
|   |   |   |   |   buying > 1
|   |   |   |   |   |   maint <= 1
|   |   |   |   |   |   |   lug_boot <= 1: good (30.16/3.56)
|   |   |   |   |   |   |   lug_boot > 1
|   |   |   |   |   |   |   |   doors <= 3
|   |   |   |   |   |   |   |   |   persons <= 4: good (9.01)
|   |   |   |   |   |   |   |   |   persons > 4: vgood (9.63/4.14)
|   |   |   |   |   |   |   |   doors > 3: vgood (24.68)
|   |   |   |   |   |   maint > 1
|   |   |   |   |   |   |   lug_boot <= 1: acc (29.93/0.12)
|   |   |   |   |   |   |   lug_boot > 1
|   |   |   |   |   |   |   |   doors <= 3
|   |   |   |   |   |   |   |   |   persons <= 4: acc (18.62)
|   |   |   |   |   |   |   |   |   persons > 4: vgood (20.44/8.71)
|   |   |   |   |   |   |   |   doors > 3: vgood (12.87)
|   |   |   |   lug_boot > 2: vgood (46.74)
|   |   buying > 2
|   |   |   safety <= 1: unacc (18.76)
|   |   |   safety > 1
|   |   |   |   lug_boot <= 2
|   |   |   |   |   doors <= 2
|   |   |   |   |   |   persons <= 4: acc (7.17/0.5)
|   |   |   |   |   |   persons > 4: unacc (40.03/0.63)
|   |   |   |   |   doors > 2
|   |   |   |   |   |   persons <= 4
|   |   |   |   |   |   |   doors <= 3: unacc (20.98/0.73)
|   |   |   |   |   |   |   doors > 3
|   |   |   |   |   |   |   |   lug_boot <= 1: unacc (10.55/0.44)
|   |   |   |   |   |   |   |   lug_boot > 1: acc (20.49)
|   |   |   |   |   |   persons > 4: acc (28.47/1.27)
|   |   |   |   lug_boot > 2: acc (23.88)
maint > 2
|   safety <= 2
|   |   doors <= 2
|   |   |   persons <= 4
|   |   |   |   persons <= 2: unacc (20.11)
|   |   |   |   persons > 2
|   |   |   |   |   safety <= 1: unacc (4.83)
|   |   |   |   |   safety > 1
|   |   |   |   |   |   buying <= 3
|   |   |   |   |   |   |   lug_boot <= 2
|   |   |   |   |   |   |   |   buying <= 1
|   |   |   |   |   |   |   |   |   maint <= 3: acc (12.79)
|   |   |   |   |   |   |   |   |   maint > 3: unacc (8.89)
|   |   |   |   |   |   |   |   buying > 1: unacc (9.3)
|   |   |   |   |   |   |   lug_boot > 2: acc (7.77/0.07)
|   |   |   |   |   |   buying > 3: unacc (7.27)
|   |   |   persons > 4
|   |   |   |   lug_boot <= 2
|   |   |   |   |   maint <= 3
|   |   |   |   |   |   buying <= 1
|   |   |   |   |   |   |   lug_boot <= 1: unacc (11.98)
|   |   |   |   |   |   |   lug_boot > 1: acc (12.22/4.14)
|   |   |   |   |   |   buying > 1: unacc (33.69)
|   |   |   |   |   maint > 3: unacc (129.29)
|   |   |   |   lug_boot > 2
|   |   |   |   |   maint <= 3: unacc (15.39/0.28)
|   |   |   |   |   maint > 3
|   |   |   |   |   |   safety <= 1: unacc (4.38)
|   |   |   |   |   |   safety > 1: acc (5.02/0.14)
|   |   doors > 2
|   |   |   safety <= 1: unacc (25.27)
|   |   |   safety > 1
|   |   |   |   persons <= 2: unacc (14.48)
|   |   |   |   persons > 2
|   |   |   |   |   buying <= 1
|   |   |   |   |   |   maint <= 3: acc (51.9)
|   |   |   |   |   |   maint > 3
|   |   |   |   |   |   |   doors <= 3
|   |   |   |   |   |   |   |   lug_boot <= 2: unacc (5.98/0.4)
|   |   |   |   |   |   |   |   lug_boot > 2: acc (2.68)
|   |   |   |   |   |   |   doors > 3: acc (8.18/0.35)
|   |   |   |   |   buying > 1
|   |   |   |   |   |   lug_boot <= 1: unacc (37.84)
|   |   |   |   |   |   lug_boot > 1
|   |   |   |   |   |   |   buying <= 3
|   |   |   |   |   |   |   |   doors <= 3
|   |   |   |   |   |   |   |   |   persons <= 4
|   |   |   |   |   |   |   |   |   |   lug_boot <= 2: unacc (20.25)
|   |   |   |   |   |   |   |   |   |   lug_boot > 2
|   |   |   |   |   |   |   |   |   |   |   maint <= 3: acc (12.41)
|   |   |   |   |   |   |   |   |   |   |   maint > 3: unacc (2.75/0.07)
|   |   |   |   |   |   |   |   |   persons > 4
|   |   |   |   |   |   |   |   |   |   buying <= 2: acc (11.85)
|   |   |   |   |   |   |   |   |   |   buying > 2
|   |   |   |   |   |   |   |   |   |   |   maint <= 3: acc (5.73)
|   |   |   |   |   |   |   |   |   |   |   maint > 3: unacc (5.36)
|   |   |   |   |   |   |   |   doors > 3
|   |   |   |   |   |   |   |   |   maint <= 3: acc (35.46)
|   |   |   |   |   |   |   |   |   maint > 3
|   |   |   |   |   |   |   |   |   |   buying <= 2: acc (8.07)
|   |   |   |   |   |   |   |   |   |   buying > 2: unacc (5.89)
|   |   |   |   |   |   |   buying > 3: unacc (14.38)
|   safety > 2
|   |   buying <= 2
|   |   |   persons <= 2: unacc (25.18)
|   |   |   persons > 2
|   |   |   |   lug_boot <= 1
|   |   |   |   |   persons <= 4: acc (40.56)
|   |   |   |   |   persons > 4
|   |   |   |   |   |   doors <= 2: unacc (18.25)
|   |   |   |   |   |   doors > 2: acc (2.76)
|   |   |   |   lug_boot > 1
|   |   |   |   |   buying <= 1
|   |   |   |   |   |   maint <= 3
|   |   |   |   |   |   |   lug_boot <= 2
|   |   |   |   |   |   |   |   doors <= 2: acc (7.12)
|   |   |   |   |   |   |   |   doors > 2
|   |   |   |   |   |   |   |   |   persons <= 4: acc (20.0/8.27)
|   |   |   |   |   |   |   |   |   persons > 4: vgood (18.71)
|   |   |   |   |   |   |   lug_boot > 2: vgood (15.77)
|   |   |   |   |   |   maint > 3: acc (20.34)
|   |   |   |   |   buying > 1: acc (45.63)
|   |   buying > 2
|   |   |   maint <= 3
|   |   |   |   buying <= 3
|   |   |   |   |   persons <= 4
|   |   |   |   |   |   persons <= 2: unacc (6.44)
|   |   |   |   |   |   persons > 2: acc (9.05)
|   |   |   |   |   persons > 4
|   |   |   |   |   |   lug_boot <= 1: unacc (21.61/0.35)
|   |   |   |   |   |   lug_boot > 1: acc (12.88)
|   |   |   |   buying > 3: unacc (27.5)
|   |   |   maint > 3: unacc (51.22)

Number of Leaves  : 	82

Size of the tree : 	163


Weight: 3.84

J48 pruned tree
------------------

safety <= 2
|   safety <= 1: unacc (137.25)
|   safety > 1
|   |   maint <= 2
|   |   |   buying <= 2
|   |   |   |   persons <= 2: unacc (3.11)
|   |   |   |   persons > 2
|   |   |   |   |   lug_boot <= 1
|   |   |   |   |   |   persons <= 4: acc (11.84)
|   |   |   |   |   |   persons > 4
|   |   |   |   |   |   |   doors <= 2: unacc (7.27)
|   |   |   |   |   |   |   doors > 2: acc (7.74)
|   |   |   |   |   lug_boot > 1
|   |   |   |   |   |   buying <= 1
|   |   |   |   |   |   |   lug_boot <= 2
|   |   |   |   |   |   |   |   doors <= 2: acc (2.92)
|   |   |   |   |   |   |   |   doors > 2: good (9.47/1.88)
|   |   |   |   |   |   |   lug_boot > 2: good (10.93)
|   |   |   |   |   |   buying > 1
|   |   |   |   |   |   |   maint <= 1
|   |   |   |   |   |   |   |   lug_boot <= 2
|   |   |   |   |   |   |   |   |   doors <= 2: acc (3.15)
|   |   |   |   |   |   |   |   |   doors > 2: good (21.65/5.99)
|   |   |   |   |   |   |   |   lug_boot > 2: good (6.48)
|   |   |   |   |   |   |   maint > 1: acc (28.17)
|   |   |   buying > 2
|   |   |   |   lug_boot <= 1: unacc (41.94)
|   |   |   |   lug_boot > 1
|   |   |   |   |   maint <= 1
|   |   |   |   |   |   persons <= 4
|   |   |   |   |   |   |   doors <= 3
|   |   |   |   |   |   |   |   lug_boot <= 2: unacc (4.34)
|   |   |   |   |   |   |   |   lug_boot > 2: acc (4.99/0.0)
|   |   |   |   |   |   |   doors > 3: acc (7.91/0.01)
|   |   |   |   |   |   persons > 4: acc (14.3/0.13)
|   |   |   |   |   maint > 1
|   |   |   |   |   |   doors <= 2: unacc (13.05/0.18)
|   |   |   |   |   |   doors > 2
|   |   |   |   |   |   |   persons <= 4
|   |   |   |   |   |   |   |   doors <= 3: unacc (5.91/0.0)
|   |   |   |   |   |   |   |   doors > 3: acc (2.91/0.01)
|   |   |   |   |   |   |   persons > 4: acc (3.42)
|   |   maint > 2
|   |   |   doors <= 2
|   |   |   |   lug_boot <= 2
|   |   |   |   |   maint <= 3
|   |   |   |   |   |   buying <= 1
|   |   |   |   |   |   |   lug_boot <= 1: unacc (11.34/3.31)
|   |   |   |   |   |   |   lug_boot > 1: acc (9.31/1.96)
|   |   |   |   |   |   buying > 1: unacc (23.96)
|   |   |   |   |   maint > 3: unacc (68.9)
|   |   |   |   lug_boot > 2
|   |   |   |   |   buying <= 3
|   |   |   |   |   |   persons <= 2: unacc (4.03)
|   |   |   |   |   |   persons > 2
|   |   |   |   |   |   |   maint <= 3: acc (9.32)
|   |   |   |   |   |   |   maint > 3
|   |   |   |   |   |   |   |   buying <= 2: acc (3.89)
|   |   |   |   |   |   |   |   buying > 2: unacc (3.33)
|   |   |   |   |   buying > 3: unacc (8.8)
|   |   |   doors > 2
|   |   |   |   persons <= 2: unacc (7.4)
|   |   |   |   persons > 2
|   |   |   |   |   buying <= 3
|   |   |   |   |   |   lug_boot <= 1
|   |   |   |   |   |   |   buying <= 1
|   |   |   |   |   |   |   |   maint <= 3: acc (19.36)
|   |   |   |   |   |   |   |   maint > 3: unacc (8.5)
|   |   |   |   |   |   |   buying > 1: unacc (19.31)
|   |   |   |   |   |   lug_boot > 1
|   |   |   |   |   |   |   doors <= 3
|   |   |   |   |   |   |   |   persons <= 4
|   |   |   |   |   |   |   |   |   lug_boot <= 2: unacc (15.06/1.91)
|   |   |   |   |   |   |   |   |   lug_boot > 2: acc (12.4/1.37)
|   |   |   |   |   |   |   |   persons > 4
|   |   |   |   |   |   |   |   |   buying <= 2: acc (15.56)
|   |   |   |   |   |   |   |   |   buying > 2
|   |   |   |   |   |   |   |   |   |   maint <= 3: acc (2.92)
|   |   |   |   |   |   |   |   |   |   maint > 3: unacc (2.74)
|   |   |   |   |   |   |   doors > 3
|   |   |   |   |   |   |   |   maint <= 3: acc (21.62)
|   |   |   |   |   |   |   |   maint > 3
|   |   |   |   |   |   |   |   |   buying <= 2: acc (8.12)
|   |   |   |   |   |   |   |   |   buying > 2: unacc (3.01)
|   |   |   |   |   buying > 3: unacc (7.36)
safety > 2
|   lug_boot <= 1
|   |   persons <= 4
|   |   |   persons <= 2: unacc (28.34)
|   |   |   persons > 2
|   |   |   |   buying <= 2
|   |   |   |   |   maint <= 2
|   |   |   |   |   |   buying <= 1: good (4.73)
|   |   |   |   |   |   buying > 1
|   |   |   |   |   |   |   maint <= 1: good (3.15)
|   |   |   |   |   |   |   maint > 1: acc (8.89)
|   |   |   |   |   maint > 2: acc (20.71)
|   |   |   |   buying > 2
|   |   |   |   |   maint <= 3: acc (24.76/1.56)
|   |   |   |   |   maint > 3: unacc (6.69)
|   |   persons > 4
|   |   |   doors <= 2: unacc (128.68)
|   |   |   doors > 2
|   |   |   |   maint <= 2
|   |   |   |   |   maint <= 1: good (10.98/0.36)
|   |   |   |   |   maint > 1
|   |   |   |   |   |   buying <= 1: good (5.88)
|   |   |   |   |   |   buying > 1: acc (6.69)
|   |   |   |   maint > 2
|   |   |   |   |   buying <= 3
|   |   |   |   |   |   maint <= 3: acc (9.13)
|   |   |   |   |   |   maint > 3: unacc (5.69/0.7)
|   |   |   |   |   buying > 3: unacc (5.99)
|   lug_boot > 1
|   |   doors <= 3
|   |   |   lug_boot <= 2
|   |   |   |   buying <= 2
|   |   |   |   |   maint <= 1
|   |   |   |   |   |   doors <= 2: good (101.07/0.16)
|   |   |   |   |   |   doors > 2
|   |   |   |   |   |   |   persons <= 4: good (2.65/0.16)
|   |   |   |   |   |   |   persons > 4: vgood (5.61)
|   |   |   |   |   maint > 1
|   |   |   |   |   |   buying <= 1
|   |   |   |   |   |   |   maint <= 2: good (90.83/0.28)
|   |   |   |   |   |   |   maint > 2
|   |   |   |   |   |   |   |   persons <= 4: acc (8.1/0.25)
|   |   |   |   |   |   |   |   persons > 4: vgood (13.26/3.81)
|   |   |   |   |   |   buying > 1
|   |   |   |   |   |   |   doors <= 2: acc (208.12/0.08)
|   |   |   |   |   |   |   doors > 2
|   |   |   |   |   |   |   |   persons <= 4: acc (9.53/0.08)
|   |   |   |   |   |   |   |   persons > 4: vgood (7.4/1.4)
|   |   |   |   buying > 2
|   |   |   |   |   persons <= 2: unacc (12.74)
|   |   |   |   |   persons > 2
|   |   |   |   |   |   maint <= 2: acc (27.79)
|   |   |   |   |   |   maint > 2
|   |   |   |   |   |   |   maint <= 3
|   |   |   |   |   |   |   |   buying <= 3: acc (2.99)
|   |   |   |   |   |   |   |   buying > 3: unacc (2.77)
|   |   |   |   |   |   |   maint > 3: unacc (7.8)
|   |   |   lug_boot > 2
|   |   |   |   buying <= 2
|   |   |   |   |   maint <= 2: vgood (24.5/0.65)
|   |   |   |   |   maint > 2
|   |   |   |   |   |   buying <= 1: vgood (8.47/0.51)
|   |   |   |   |   |   buying > 1: acc (6.35/0.0)
|   |   |   |   buying > 2: unacc (7.23/0.66)
|   |   doors > 3
|   |   |   persons <= 4
|   |   |   |   buying <= 1: vgood (224.61/5.2)
|   |   |   |   buying > 1
|   |   |   |   |   buying <= 2
|   |   |   |   |   |   maint <= 2: vgood (19.71/0.65)
|   |   |   |   |   |   maint > 2: acc (9.86/0.01)
|   |   |   |   |   buying > 2: unacc (5.64/0.21)
|   |   |   persons > 4: acc (15.66/1.07)

Number of Leaves  : 	80

Size of the tree : 	159


Weight: 3.89

J48 pruned tree
------------------

persons <= 2: unacc (171.85)
persons > 2
|   buying <= 2
|   |   doors <= 3
|   |   |   safety <= 1: unacc (55.21)
|   |   |   safety > 1
|   |   |   |   lug_boot <= 1
|   |   |   |   |   persons <= 4: acc (105.74/6.22)
|   |   |   |   |   persons > 4
|   |   |   |   |   |   doors <= 2: unacc (60.38)
|   |   |   |   |   |   doors > 2: acc (14.67/4.64)
|   |   |   |   lug_boot > 1
|   |   |   |   |   maint <= 2
|   |   |   |   |   |   lug_boot <= 2
|   |   |   |   |   |   |   safety <= 2
|   |   |   |   |   |   |   |   persons <= 4: acc (196.79)
|   |   |   |   |   |   |   |   persons > 4
|   |   |   |   |   |   |   |   |   doors <= 2: acc (3.07)
|   |   |   |   |   |   |   |   |   doors > 2: good (8.22/1.77)
|   |   |   |   |   |   |   safety > 2
|   |   |   |   |   |   |   |   maint <= 1
|   |   |   |   |   |   |   |   |   doors <= 2: good (51.48)
|   |   |   |   |   |   |   |   |   doors > 2: vgood (4.13/1.27)
|   |   |   |   |   |   |   |   maint > 1: acc (163.07/52.19)
|   |   |   |   |   |   lug_boot > 2
|   |   |   |   |   |   |   safety <= 2: good (8.02/1.43)
|   |   |   |   |   |   |   safety > 2: vgood (12.17)
|   |   |   |   |   maint > 2
|   |   |   |   |   |   safety <= 2
|   |   |   |   |   |   |   doors <= 2
|   |   |   |   |   |   |   |   lug_boot <= 2
|   |   |   |   |   |   |   |   |   maint <= 3
|   |   |   |   |   |   |   |   |   |   buying <= 1: acc (3.75)
|   |   |   |   |   |   |   |   |   |   buying > 1: unacc (4.46)
|   |   |   |   |   |   |   |   |   maint > 3: unacc (33.68)
|   |   |   |   |   |   |   |   lug_boot > 2: acc (4.43)
|   |   |   |   |   |   |   doors > 2: acc (61.7/3.57)
|   |   |   |   |   |   safety > 2
|   |   |   |   |   |   |   lug_boot <= 2: acc (139.28/4.82)
|   |   |   |   |   |   |   lug_boot > 2
|   |   |   |   |   |   |   |   maint <= 3
|   |   |   |   |   |   |   |   |   buying <= 1: vgood (4.06)
|   |   |   |   |   |   |   |   |   buying > 1: acc (3.21)
|   |   |   |   |   |   |   |   maint > 3: acc (6.5)
|   |   doors > 3
|   |   |   maint <= 3
|   |   |   |   safety <= 2
|   |   |   |   |   lug_boot <= 1
|   |   |   |   |   |   buying <= 1: acc (9.57/0.44)
|   |   |   |   |   |   buying > 1: unacc (5.45/0.09)
|   |   |   |   |   lug_boot > 1
|   |   |   |   |   |   maint <= 1: good (3.76/0.45)
|   |   |   |   |   |   maint > 1
|   |   |   |   |   |   |   buying <= 1
|   |   |   |   |   |   |   |   maint <= 2: good (4.63/0.22)
|   |   |   |   |   |   |   |   maint > 2: acc (2.02/0.22)
|   |   |   |   |   |   |   buying > 1: acc (13.65/0.45)
|   |   |   |   safety > 2
|   |   |   |   |   lug_boot <= 1
|   |   |   |   |   |   maint <= 1: good (3.62)
|   |   |   |   |   |   maint > 1
|   |   |   |   |   |   |   persons <= 4: acc (5.97/0.07)
|   |   |   |   |   |   |   persons > 4
|   |   |   |   |   |   |   |   buying <= 1: good (2.12/0.12)
|   |   |   |   |   |   |   |   buying > 1: acc (2.27)
|   |   |   |   |   lug_boot > 1
|   |   |   |   |   |   buying <= 1: vgood (120.79)
|   |   |   |   |   |   buying > 1
|   |   |   |   |   |   |   maint <= 2: vgood (12.91)
|   |   |   |   |   |   |   maint > 2: acc (7.78)
|   |   |   maint > 3
|   |   |   |   safety <= 2
|   |   |   |   |   lug_boot <= 1: unacc (4.36)
|   |   |   |   |   lug_boot > 1: acc (4.59/0.45)
|   |   |   |   safety > 2: acc (115.06)
|   buying > 2
|   |   maint <= 2
|   |   |   safety <= 2
|   |   |   |   lug_boot <= 1: unacc (21.41)
|   |   |   |   lug_boot > 1
|   |   |   |   |   safety <= 1: unacc (4.87)
|   |   |   |   |   safety > 1
|   |   |   |   |   |   lug_boot <= 2
|   |   |   |   |   |   |   doors <= 2: unacc (9.86)
|   |   |   |   |   |   |   doors > 2
|   |   |   |   |   |   |   |   persons <= 4
|   |   |   |   |   |   |   |   |   doors <= 3: unacc (5.17)
|   |   |   |   |   |   |   |   |   doors > 3: acc (5.33)
|   |   |   |   |   |   |   |   persons > 4: acc (6.23)
|   |   |   |   |   |   lug_boot > 2: acc (10.04)
|   |   |   safety > 2
|   |   |   |   lug_boot <= 1
|   |   |   |   |   doors <= 2: unacc (8.19/1.61)
|   |   |   |   |   doors > 2: acc (17.1)
|   |   |   |   lug_boot > 1: acc (31.7)
|   |   maint > 2
|   |   |   buying <= 3
|   |   |   |   maint <= 3
|   |   |   |   |   safety <= 1: unacc (6.83)
|   |   |   |   |   safety > 1
|   |   |   |   |   |   lug_boot <= 2
|   |   |   |   |   |   |   doors <= 3
|   |   |   |   |   |   |   |   safety <= 2: unacc (10.29/1.43)
|   |   |   |   |   |   |   |   safety > 2
|   |   |   |   |   |   |   |   |   persons <= 4: acc (2.2)
|   |   |   |   |   |   |   |   |   persons > 4: unacc (8.44/2.9)
|   |   |   |   |   |   |   doors > 3: acc (14.41/1.48)
|   |   |   |   |   |   lug_boot > 2: acc (9.51)
|   |   |   |   maint > 3: unacc (54.93)
|   |   |   buying > 3: unacc (67.06)

Number of Leaves  : 	56

Size of the tree : 	111


Weight: 2.95

J48 pruned tree
------------------

safety <= 2
|   safety <= 1: unacc (58.18)
|   safety > 1
|   |   persons <= 2: unacc (31.13)
|   |   persons > 2
|   |   |   maint <= 2
|   |   |   |   buying <= 2: acc (162.3/12.87)
|   |   |   |   buying > 2
|   |   |   |   |   lug_boot <= 1: unacc (11.25)
|   |   |   |   |   lug_boot > 1
|   |   |   |   |   |   lug_boot <= 2
|   |   |   |   |   |   |   doors <= 2: unacc (5.19)
|   |   |   |   |   |   |   doors > 2
|   |   |   |   |   |   |   |   persons <= 4
|   |   |   |   |   |   |   |   |   doors <= 3: unacc (2.72)
|   |   |   |   |   |   |   |   |   doors > 3: acc (2.81)
|   |   |   |   |   |   |   |   persons > 4: acc (3.28)
|   |   |   |   |   |   lug_boot > 2: acc (5.28)
|   |   |   maint > 2
|   |   |   |   maint <= 3
|   |   |   |   |   buying <= 1: acc (79.55/1.64)
|   |   |   |   |   buying > 1
|   |   |   |   |   |   lug_boot <= 1: unacc (45.84)
|   |   |   |   |   |   lug_boot > 1
|   |   |   |   |   |   |   buying <= 2: unacc (26.05/2.51)
|   |   |   |   |   |   |   buying > 2
|   |   |   |   |   |   |   |   buying <= 3
|   |   |   |   |   |   |   |   |   doors <= 2: unacc (4.19/1.22)
|   |   |   |   |   |   |   |   |   doors > 2: acc (21.54/1.64)
|   |   |   |   |   |   |   |   buying > 3: unacc (3.49)
|   |   |   |   maint > 3
|   |   |   |   |   buying <= 2
|   |   |   |   |   |   buying <= 1: unacc (51.11/4.0)
|   |   |   |   |   |   buying > 1: acc (4.06/0.67)
|   |   |   |   |   buying > 2: unacc (22.06)
safety > 2
|   maint <= 2
|   |   buying <= 1
|   |   |   persons <= 2: unacc (19.14)
|   |   |   persons > 2
|   |   |   |   persons <= 4: good (482.63/7.77)
|   |   |   |   persons > 4
|   |   |   |   |   lug_boot <= 1
|   |   |   |   |   |   doors <= 2: unacc (2.1)
|   |   |   |   |   |   doors > 2: good (11.48)
|   |   |   |   |   lug_boot > 1
|   |   |   |   |   |   doors <= 2: good (15.73/1.3)
|   |   |   |   |   |   doors > 2: vgood (33.47)
|   |   buying > 1
|   |   |   maint <= 1
|   |   |   |   buying <= 2
|   |   |   |   |   persons <= 2: unacc (10.6)
|   |   |   |   |   persons > 2
|   |   |   |   |   |   lug_boot <= 1
|   |   |   |   |   |   |   doors <= 2: unacc (38.75/15.94)
|   |   |   |   |   |   |   doors > 2: good (19.96)
|   |   |   |   |   |   lug_boot > 1
|   |   |   |   |   |   |   doors <= 3: good (42.47/2.64)
|   |   |   |   |   |   |   doors > 3: vgood (3.45)
|   |   |   |   buying > 2: acc (36.34/3.37)
|   |   |   maint > 1
|   |   |   |   persons <= 2: unacc (10.18)
|   |   |   |   persons > 2
|   |   |   |   |   doors <= 2: acc (65.79/3.79)
|   |   |   |   |   doors > 2
|   |   |   |   |   |   buying <= 2
|   |   |   |   |   |   |   lug_boot <= 1: acc (2.44)
|   |   |   |   |   |   |   lug_boot > 1
|   |   |   |   |   |   |   |   persons <= 4: acc (4.28/1.75)
|   |   |   |   |   |   |   |   persons > 4: vgood (32.38)
|   |   |   |   |   |   buying > 2: acc (4.31)
|   maint > 2
|   |   buying <= 3
|   |   |   persons <= 2: unacc (17.62)
|   |   |   persons > 2
|   |   |   |   maint <= 3
|   |   |   |   |   buying <= 1
|   |   |   |   |   |   doors <= 2: acc (26.88/1.32)
|   |   |   |   |   |   doors > 2
|   |   |   |   |   |   |   lug_boot <= 1: acc (3.57)
|   |   |   |   |   |   |   lug_boot > 1: vgood (105.43/1.61)
|   |   |   |   |   buying > 1
|   |   |   |   |   |   lug_boot <= 1
|   |   |   |   |   |   |   doors <= 2: unacc (4.91/1.13)
|   |   |   |   |   |   |   doors > 2: acc (16.12)
|   |   |   |   |   |   lug_boot > 1: acc (42.12)
|   |   |   |   maint > 3
|   |   |   |   |   buying <= 2: acc (97.4/1.62)
|   |   |   |   |   buying > 2: unacc (7.6)
|   |   buying > 3: unacc (30.85)

Number of Leaves  : 	46

Size of the tree : 	91


Weight: 3.21

J48 pruned tree
------------------

maint <= 2
|   buying <= 2
|   |   lug_boot <= 1
|   |   |   safety <= 2: unacc (30.54/3.2)
|   |   |   safety > 2
|   |   |   |   persons <= 4: good (222.43/3.47)
|   |   |   |   persons > 4
|   |   |   |   |   doors <= 2: unacc (22.7)
|   |   |   |   |   doors > 2: good (17.12/0.88)
|   |   lug_boot > 1
|   |   |   safety <= 2
|   |   |   |   doors <= 3
|   |   |   |   |   persons <= 4
|   |   |   |   |   |   lug_boot <= 2: acc (53.96/0.11)
|   |   |   |   |   |   lug_boot > 2
|   |   |   |   |   |   |   buying <= 1: good (15.02/0.04)
|   |   |   |   |   |   |   buying > 1
|   |   |   |   |   |   |   |   maint <= 1: good (14.7/0.03)
|   |   |   |   |   |   |   |   maint > 1: acc (3.78/0.03)
|   |   |   |   |   persons > 4
|   |   |   |   |   |   maint <= 1: good (41.25/0.48)
|   |   |   |   |   |   maint > 1
|   |   |   |   |   |   |   buying <= 1: good (18.68/0.4)
|   |   |   |   |   |   |   buying > 1: acc (13.07/0.03)
|   |   |   |   doors > 3
|   |   |   |   |   safety <= 1: unacc (4.7)
|   |   |   |   |   safety > 1
|   |   |   |   |   |   persons <= 4: good (53.51/1.66)
|   |   |   |   |   |   persons > 4: acc (2.18/0.66)
|   |   |   safety > 2
|   |   |   |   doors <= 3
|   |   |   |   |   lug_boot <= 2
|   |   |   |   |   |   persons <= 4
|   |   |   |   |   |   |   buying <= 1: good (236.57/2.21)
|   |   |   |   |   |   |   buying > 1
|   |   |   |   |   |   |   |   persons <= 2: unacc (2.21)
|   |   |   |   |   |   |   |   persons > 2: good (8.27/1.33)
|   |   |   |   |   |   persons > 4
|   |   |   |   |   |   |   doors <= 2
|   |   |   |   |   |   |   |   maint <= 1: good (13.79)
|   |   |   |   |   |   |   |   maint > 1: acc (36.51/7.5)
|   |   |   |   |   |   |   doors > 2: vgood (41.5)
|   |   |   |   |   lug_boot > 2
|   |   |   |   |   |   persons <= 2: unacc (4.42)
|   |   |   |   |   |   persons > 2: vgood (82.62)
|   |   |   |   doors > 3
|   |   |   |   |   persons <= 2: unacc (8.84)
|   |   |   |   |   persons > 2: vgood (102.89)
|   buying > 2
|   |   lug_boot <= 2
|   |   |   persons <= 2: unacc (19.77)
|   |   |   persons > 2
|   |   |   |   persons <= 4
|   |   |   |   |   safety <= 2: unacc (5.31/1.46)
|   |   |   |   |   safety > 2: acc (12.39)
|   |   |   |   persons > 4
|   |   |   |   |   lug_boot <= 1
|   |   |   |   |   |   doors <= 2: unacc (44.84)
|   |   |   |   |   |   doors > 2
|   |   |   |   |   |   |   safety <= 2: unacc (4.25)
|   |   |   |   |   |   |   safety > 2: acc (2.48)
|   |   |   |   |   lug_boot > 1
|   |   |   |   |   |   safety <= 2: unacc (4.73/1.7)
|   |   |   |   |   |   safety > 2: acc (2.24)
|   |   lug_boot > 2
|   |   |   persons <= 2: unacc (2.44)
|   |   |   persons > 2: acc (7.55/0.16)
maint > 2
|   safety <= 2
|   |   safety <= 1: unacc (22.13)
|   |   safety > 1
|   |   |   persons <= 2: unacc (15.59)
|   |   |   persons > 2
|   |   |   |   lug_boot <= 1
|   |   |   |   |   buying <= 1
|   |   |   |   |   |   persons <= 4
|   |   |   |   |   |   |   maint <= 3: acc (23.97)
|   |   |   |   |   |   |   maint > 3: unacc (7.08)
|   |   |   |   |   |   persons > 4: unacc (23.31/1.35)
|   |   |   |   |   buying > 1: unacc (28.93)
|   |   |   |   lug_boot > 1
|   |   |   |   |   doors <= 3
|   |   |   |   |   |   persons <= 4
|   |   |   |   |   |   |   doors <= 2: acc (10.76/1.4)
|   |   |   |   |   |   |   doors > 2
|   |   |   |   |   |   |   |   buying <= 1
|   |   |   |   |   |   |   |   |   maint <= 3: acc (13.31)
|   |   |   |   |   |   |   |   |   maint > 3: unacc (12.25/4.75)
|   |   |   |   |   |   |   |   buying > 1: unacc (47.24/1.24)
|   |   |   |   |   |   persons > 4
|   |   |   |   |   |   |   doors <= 2
|   |   |   |   |   |   |   |   lug_boot <= 2: unacc (11.9/0.58)
|   |   |   |   |   |   |   |   lug_boot > 2: acc (16.55/0.96)
|   |   |   |   |   |   |   doors > 2: acc (52.16/0.89)
|   |   |   |   |   doors > 3: acc (31.76/0.55)
|   safety > 2
|   |   lug_boot <= 1
|   |   |   buying <= 3
|   |   |   |   maint <= 3
|   |   |   |   |   persons <= 4: acc (17.34/0.86)
|   |   |   |   |   persons > 4
|   |   |   |   |   |   doors <= 2: unacc (2.18)
|   |   |   |   |   |   doors > 2: acc (8.98)
|   |   |   |   maint > 3
|   |   |   |   |   doors <= 2: unacc (22.24/1.04)
|   |   |   |   |   doors > 2: acc (7.03/2.21)
|   |   |   buying > 3: unacc (11.54)
|   |   lug_boot > 1
|   |   |   persons <= 2: unacc (7.48)
|   |   |   persons > 2
|   |   |   |   buying <= 1
|   |   |   |   |   maint <= 3
|   |   |   |   |   |   doors <= 3
|   |   |   |   |   |   |   lug_boot <= 2
|   |   |   |   |   |   |   |   persons <= 4: acc (21.06)
|   |   |   |   |   |   |   |   persons > 4: vgood (37.66/12.43)
|   |   |   |   |   |   |   lug_boot > 2: vgood (17.29)
|   |   |   |   |   |   doors > 3: vgood (28.34)
|   |   |   |   |   maint > 3: acc (43.68)
|   |   |   |   buying > 1
|   |   |   |   |   buying <= 3
|   |   |   |   |   |   maint <= 3: acc (21.9)
|   |   |   |   |   |   maint > 3: unacc (2.61/0.29)
|   |   |   |   |   buying > 3: unacc (4.49)

Number of Leaves  : 	63

Size of the tree : 	125


Weight: 3.44

J48 pruned tree
------------------

persons <= 2: unacc (134.19)
persons > 2
|   maint <= 2
|   |   buying <= 2
|   |   |   safety <= 2
|   |   |   |   safety <= 1: unacc (5.83)
|   |   |   |   safety > 1
|   |   |   |   |   lug_boot <= 1
|   |   |   |   |   |   persons <= 4: acc (26.67)
|   |   |   |   |   |   persons > 4
|   |   |   |   |   |   |   doors <= 2: unacc (13.03)
|   |   |   |   |   |   |   doors > 2: acc (24.66)
|   |   |   |   |   lug_boot > 1
|   |   |   |   |   |   buying <= 1
|   |   |   |   |   |   |   lug_boot <= 2
|   |   |   |   |   |   |   |   doors <= 3
|   |   |   |   |   |   |   |   |   persons <= 4: acc (6.63)
|   |   |   |   |   |   |   |   |   persons > 4
|   |   |   |   |   |   |   |   |   |   doors <= 2: acc (6.4)
|   |   |   |   |   |   |   |   |   |   doors > 2: good (5.71)
|   |   |   |   |   |   |   |   doors > 3: good (12.9)
|   |   |   |   |   |   |   lug_boot > 2: good (24.58)
|   |   |   |   |   |   buying > 1
|   |   |   |   |   |   |   maint <= 1
|   |   |   |   |   |   |   |   lug_boot <= 2
|   |   |   |   |   |   |   |   |   doors <= 3
|   |   |   |   |   |   |   |   |   |   persons <= 4: acc (21.15)
|   |   |   |   |   |   |   |   |   |   persons > 4: good (23.87/6.94)
|   |   |   |   |   |   |   |   |   doors > 3: good (11.26)
|   |   |   |   |   |   |   |   lug_boot > 2: good (11.75)
|   |   |   |   |   |   |   maint > 1: acc (33.78)
|   |   |   safety > 2
|   |   |   |   lug_boot <= 2
|   |   |   |   |   doors <= 3
|   |   |   |   |   |   buying <= 1
|   |   |   |   |   |   |   doors <= 2: good (130.81/0.56)
|   |   |   |   |   |   |   doors > 2
|   |   |   |   |   |   |   |   persons <= 4: good (117.17)
|   |   |   |   |   |   |   |   persons > 4
|   |   |   |   |   |   |   |   |   lug_boot <= 1: good (2.79)
|   |   |   |   |   |   |   |   |   lug_boot > 1: vgood (8.13)
|   |   |   |   |   |   buying > 1
|   |   |   |   |   |   |   maint <= 1: good (133.14/11.15)
|   |   |   |   |   |   |   maint > 1
|   |   |   |   |   |   |   |   persons <= 4: acc (35.04)
|   |   |   |   |   |   |   |   persons > 4
|   |   |   |   |   |   |   |   |   doors <= 2: acc (20.01/5.03)
|   |   |   |   |   |   |   |   |   doors > 2: vgood (12.98/4.72)
|   |   |   |   |   doors > 3
|   |   |   |   |   |   lug_boot <= 1: acc (16.54/0.97)
|   |   |   |   |   |   lug_boot > 1: vgood (53.06)
|   |   |   |   lug_boot > 2: vgood (42.69)
|   |   buying > 2
|   |   |   lug_boot <= 1
|   |   |   |   persons <= 4: acc (6.29/0.82)
|   |   |   |   persons > 4: unacc (26.61/1.28)
|   |   |   lug_boot > 1
|   |   |   |   safety <= 1: unacc (3.15)
|   |   |   |   safety > 1: acc (58.72/2.12)
|   maint > 2
|   |   buying <= 1
|   |   |   safety <= 2
|   |   |   |   safety <= 1: unacc (9.14)
|   |   |   |   safety > 1
|   |   |   |   |   doors <= 2
|   |   |   |   |   |   maint <= 3
|   |   |   |   |   |   |   persons <= 4: acc (11.91)
|   |   |   |   |   |   |   persons > 4: unacc (20.38/9.42)
|   |   |   |   |   |   maint > 3: unacc (12.85/0.18)
|   |   |   |   |   doors > 2: acc (134.23/4.54)
|   |   |   safety > 2
|   |   |   |   doors <= 2
|   |   |   |   |   lug_boot <= 2: acc (214.64/5.14)
|   |   |   |   |   lug_boot > 2: vgood (9.16/0.46)
|   |   |   |   doors > 2
|   |   |   |   |   maint <= 3
|   |   |   |   |   |   persons <= 4
|   |   |   |   |   |   |   doors <= 3: acc (10.96/0.22)
|   |   |   |   |   |   |   doors > 3: vgood (14.85/0.63)
|   |   |   |   |   |   persons > 4: vgood (13.75/0.33)
|   |   |   |   |   maint > 3: acc (23.2)
|   |   buying > 1
|   |   |   buying <= 3
|   |   |   |   maint <= 3
|   |   |   |   |   lug_boot <= 2
|   |   |   |   |   |   safety <= 2
|   |   |   |   |   |   |   lug_boot <= 1: unacc (12.31)
|   |   |   |   |   |   |   lug_boot > 1
|   |   |   |   |   |   |   |   persons <= 4
|   |   |   |   |   |   |   |   |   doors <= 3: unacc (22.58)
|   |   |   |   |   |   |   |   |   doors > 3: acc (7.88/0.39)
|   |   |   |   |   |   |   |   persons > 4: acc (11.32/1.54)
|   |   |   |   |   |   safety > 2: acc (22.91/1.01)
|   |   |   |   |   lug_boot > 2: acc (30.67/0.88)
|   |   |   |   maint > 3
|   |   |   |   |   buying <= 2
|   |   |   |   |   |   lug_boot <= 2
|   |   |   |   |   |   |   safety <= 2: unacc (5.36/0.51)
|   |   |   |   |   |   |   safety > 2
|   |   |   |   |   |   |   |   persons <= 4: acc (7.21)
|   |   |   |   |   |   |   |   persons > 4
|   |   |   |   |   |   |   |   |   doors <= 2: unacc (5.91/0.12)
|   |   |   |   |   |   |   |   |   doors > 2: acc (5.3)
|   |   |   |   |   |   lug_boot > 2: acc (4.44/0.32)
|   |   |   |   |   buying > 2: unacc (49.01)
|   |   |   buying > 3: unacc (38.5)

Number of Leaves  : 	54

Size of the tree : 	107


Weight: 3.34

J48 pruned tree
------------------

maint <= 2
|   lug_boot <= 1
|   |   doors <= 2
|   |   |   persons <= 4
|   |   |   |   safety <= 2
|   |   |   |   |   buying <= 2: acc (13.66/0.02)
|   |   |   |   |   buying > 2: unacc (6.32)
|   |   |   |   safety > 2
|   |   |   |   |   persons <= 2: unacc (4.69)
|   |   |   |   |   persons > 2
|   |   |   |   |   |   maint <= 1
|   |   |   |   |   |   |   buying <= 2: good (55.17)
|   |   |   |   |   |   |   buying > 2: acc (2.2)
|   |   |   |   |   |   maint > 1
|   |   |   |   |   |   |   buying <= 1: good (3.17)
|   |   |   |   |   |   |   buying > 1: acc (7.13)
|   |   |   persons > 4: unacc (189.44)
|   |   doors > 2
|   |   |   persons <= 4
|   |   |   |   persons <= 2: unacc (13.9)
|   |   |   |   persons > 2
|   |   |   |   |   safety <= 2: unacc (6.08/0.17)
|   |   |   |   |   safety > 2
|   |   |   |   |   |   buying <= 1: good (2.65)
|   |   |   |   |   |   buying > 1: acc (3.83/0.03)
|   |   |   persons > 4
|   |   |   |   safety <= 2: acc (14.16/1.39)
|   |   |   |   safety > 2
|   |   |   |   |   buying <= 1: good (5.7)
|   |   |   |   |   buying > 1
|   |   |   |   |   |   maint <= 1
|   |   |   |   |   |   |   buying <= 2: good (9.78)
|   |   |   |   |   |   |   buying > 2: acc (18.28)
|   |   |   |   |   |   maint > 1: acc (74.09)
|   lug_boot > 1
|   |   safety <= 2
|   |   |   buying <= 2
|   |   |   |   buying <= 1
|   |   |   |   |   lug_boot <= 2
|   |   |   |   |   |   doors <= 3
|   |   |   |   |   |   |   persons <= 4: acc (3.75/0.31)
|   |   |   |   |   |   |   persons > 4
|   |   |   |   |   |   |   |   doors <= 2: acc (3.42/0.1)
|   |   |   |   |   |   |   |   doors > 2: good (2.96/0.0)
|   |   |   |   |   |   doors > 3: good (7.29/0.61)
|   |   |   |   |   lug_boot > 2: good (13.76/1.03)
|   |   |   |   buying > 1
|   |   |   |   |   doors <= 2
|   |   |   |   |   |   lug_boot <= 2: acc (101.58/0.41)
|   |   |   |   |   |   lug_boot > 2
|   |   |   |   |   |   |   maint <= 1: good (4.12/0.2)
|   |   |   |   |   |   |   maint > 1: acc (2.16/0.2)
|   |   |   |   |   doors > 2
|   |   |   |   |   |   maint <= 1
|   |   |   |   |   |   |   persons <= 4
|   |   |   |   |   |   |   |   doors <= 3
|   |   |   |   |   |   |   |   |   lug_boot <= 2: acc (11.09/0.14)
|   |   |   |   |   |   |   |   |   lug_boot > 2: good (2.1/0.14)
|   |   |   |   |   |   |   |   doors > 3: good (6.3/0.46)
|   |   |   |   |   |   |   persons > 4: good (9.24/0.28)
|   |   |   |   |   |   maint > 1: acc (16.56/1.02)
|   |   |   buying > 2
|   |   |   |   doors <= 2: unacc (21.32/0.69)
|   |   |   |   doors > 2
|   |   |   |   |   persons <= 4
|   |   |   |   |   |   doors <= 3: unacc (10.81/0.01)
|   |   |   |   |   |   doors > 3: acc (12.49/0.37)
|   |   |   |   |   persons > 4: acc (14.96/0.8)
|   |   safety > 2
|   |   |   persons <= 2: unacc (28.29)
|   |   |   persons > 2
|   |   |   |   buying <= 1
|   |   |   |   |   doors <= 3
|   |   |   |   |   |   lug_boot <= 2
|   |   |   |   |   |   |   doors <= 2: good (64.21)
|   |   |   |   |   |   |   doors > 2
|   |   |   |   |   |   |   |   persons <= 4: good (60.62)
|   |   |   |   |   |   |   |   persons > 4: vgood (4.21)
|   |   |   |   |   |   lug_boot > 2: vgood (11.01)
|   |   |   |   |   doors > 3: vgood (20.8)
|   |   |   |   buying > 1
|   |   |   |   |   maint <= 1
|   |   |   |   |   |   doors <= 2
|   |   |   |   |   |   |   lug_boot <= 2: good (4.05/0.29)
|   |   |   |   |   |   |   lug_boot > 2: vgood (4.81/0.3)
|   |   |   |   |   |   doors > 2: vgood (78.13/2.35)
|   |   |   |   |   maint > 1
|   |   |   |   |   |   doors <= 3
|   |   |   |   |   |   |   lug_boot <= 2
|   |   |   |   |   |   |   |   persons <= 4: acc (11.25)
|   |   |   |   |   |   |   |   persons > 4
|   |   |   |   |   |   |   |   |   doors <= 2: acc (8.04)
|   |   |   |   |   |   |   |   |   doors > 2: vgood (4.28/0.01)
|   |   |   |   |   |   |   lug_boot > 2: vgood (5.15/0.6)
|   |   |   |   |   |   doors > 3: vgood (6.26/0.04)
maint > 2
|   lug_boot <= 1
|   |   maint <= 3
|   |   |   persons <= 2: unacc (7.55)
|   |   |   persons > 2
|   |   |   |   buying <= 1
|   |   |   |   |   doors <= 2
|   |   |   |   |   |   persons <= 4: acc (6.21/0.0)
|   |   |   |   |   |   persons > 4: unacc (7.25)
|   |   |   |   |   doors > 2: acc (25.68/0.16)
|   |   |   |   buying > 1
|   |   |   |   |   safety <= 2: unacc (6.38)
|   |   |   |   |   safety > 2
|   |   |   |   |   |   doors <= 2
|   |   |   |   |   |   |   persons <= 4: acc (6.4/2.5)
|   |   |   |   |   |   |   persons > 4: unacc (14.79)
|   |   |   |   |   |   doors > 2: acc (2.81/0.57)
|   |   maint > 3
|   |   |   persons <= 4
|   |   |   |   doors <= 2
|   |   |   |   |   safety <= 2: unacc (2.87)
|   |   |   |   |   safety > 2: acc (8.69/0.07)
|   |   |   |   doors > 2: unacc (17.23/0.0)
|   |   |   persons > 4: unacc (88.73/1.29)
|   lug_boot > 1
|   |   safety <= 2
|   |   |   safety <= 1: unacc (32.37)
|   |   |   safety > 1
|   |   |   |   buying <= 2
|   |   |   |   |   persons <= 4
|   |   |   |   |   |   lug_boot <= 2
|   |   |   |   |   |   |   doors <= 3
|   |   |   |   |   |   |   |   maint <= 3
|   |   |   |   |   |   |   |   |   buying <= 1
|   |   |   |   |   |   |   |   |   |   persons <= 2: unacc (3.58)
|   |   |   |   |   |   |   |   |   |   persons > 2: acc (3.61)
|   |   |   |   |   |   |   |   |   buying > 1: unacc (5.78)
|   |   |   |   |   |   |   |   maint > 3: unacc (59.92)
|   |   |   |   |   |   |   doors > 3: acc (11.4/0.01)
|   |   |   |   |   |   lug_boot > 2: acc (43.88/0.18)
|   |   |   |   |   persons > 4
|   |   |   |   |   |   buying <= 1: acc (149.99/2.38)
|   |   |   |   |   |   buying > 1
|   |   |   |   |   |   |   doors <= 2
|   |   |   |   |   |   |   |   lug_boot <= 2: unacc (6.62)
|   |   |   |   |   |   |   |   lug_boot > 2: acc (2.05)
|   |   |   |   |   |   |   doors > 2: acc (6.24)
|   |   |   |   buying > 2
|   |   |   |   |   buying <= 3
|   |   |   |   |   |   maint <= 3
|   |   |   |   |   |   |   lug_boot <= 2
|   |   |   |   |   |   |   |   doors <= 2: unacc (11.63)
|   |   |   |   |   |   |   |   doors > 2
|   |   |   |   |   |   |   |   |   persons <= 4: unacc (5.92/0.24)
|   |   |   |   |   |   |   |   |   persons > 4: acc (2.14)
|   |   |   |   |   |   |   lug_boot > 2: acc (11.67/0.01)
|   |   |   |   |   |   maint > 3: unacc (13.01)
|   |   |   |   |   buying > 3: unacc (15.63)
|   |   safety > 2
|   |   |   doors <= 2
|   |   |   |   lug_boot <= 2: acc (107.74/0.6)
|   |   |   |   lug_boot > 2
|   |   |   |   |   maint <= 3: vgood (4.92/0.41)
|   |   |   |   |   maint > 3: acc (6.94/0.22)
|   |   |   doors > 2
|   |   |   |   maint <= 3
|   |   |   |   |   buying <= 1
|   |   |   |   |   |   persons <= 4
|   |   |   |   |   |   |   doors <= 3
|   |   |   |   |   |   |   |   lug_boot <= 2: acc (5.68/0.12)
|   |   |   |   |   |   |   |   lug_boot > 2: vgood (3.37/0.12)
|   |   |   |   |   |   |   doors > 3: vgood (7.83/0.46)
|   |   |   |   |   |   persons > 4: vgood (6.95)
|   |   |   |   |   buying > 1: acc (4.57/0.91)
|   |   |   |   maint > 3: acc (14.74/1.18)

Number of Leaves  : 	86

Size of the tree : 	171


Weight: 4.29

J48 pruned tree
------------------

persons <= 2: unacc (205.15)
persons > 2
|   safety <= 1: unacc (166.49)
|   safety > 1
|   |   maint <= 2
|   |   |   lug_boot <= 1
|   |   |   |   persons <= 4
|   |   |   |   |   buying <= 2
|   |   |   |   |   |   safety <= 2: acc (13.05)
|   |   |   |   |   |   safety > 2
|   |   |   |   |   |   |   maint <= 1: good (29.25)
|   |   |   |   |   |   |   maint > 1
|   |   |   |   |   |   |   |   buying <= 1: good (2.95)
|   |   |   |   |   |   |   |   buying > 1: acc (5.22)
|   |   |   |   |   buying > 2: unacc (7.5/1.44)
|   |   |   |   persons > 4
|   |   |   |   |   doors <= 2: unacc (96.02)
|   |   |   |   |   doors > 2
|   |   |   |   |   |   safety <= 2
|   |   |   |   |   |   |   buying <= 2: acc (6.47)
|   |   |   |   |   |   |   buying > 2: unacc (41.88)
|   |   |   |   |   |   safety > 2
|   |   |   |   |   |   |   buying <= 1: good (2.89)
|   |   |   |   |   |   |   buying > 1
|   |   |   |   |   |   |   |   maint <= 1
|   |   |   |   |   |   |   |   |   buying <= 2: good (4.96)
|   |   |   |   |   |   |   |   |   buying > 2: acc (9.27)
|   |   |   |   |   |   |   |   maint > 1: acc (37.55)
|   |   |   lug_boot > 1
|   |   |   |   buying <= 2
|   |   |   |   |   safety <= 2
|   |   |   |   |   |   buying <= 1: good (14.76/3.42)
|   |   |   |   |   |   buying > 1
|   |   |   |   |   |   |   doors <= 2
|   |   |   |   |   |   |   |   lug_boot <= 2: acc (51.28)
|   |   |   |   |   |   |   |   lug_boot > 2: good (2.98/0.99)
|   |   |   |   |   |   |   doors > 2
|   |   |   |   |   |   |   |   maint <= 1
|   |   |   |   |   |   |   |   |   persons <= 4
|   |   |   |   |   |   |   |   |   |   doors <= 3: acc (6.54/0.99)
|   |   |   |   |   |   |   |   |   |   doors > 3: good (2.96)
|   |   |   |   |   |   |   |   |   persons > 4: good (4.54)
|   |   |   |   |   |   |   |   maint > 1: acc (7.87)
|   |   |   |   |   safety > 2
|   |   |   |   |   |   doors <= 3
|   |   |   |   |   |   |   persons <= 4
|   |   |   |   |   |   |   |   lug_boot <= 2
|   |   |   |   |   |   |   |   |   maint <= 1: good (65.62)
|   |   |   |   |   |   |   |   |   maint > 1
|   |   |   |   |   |   |   |   |   |   buying <= 1: good (31.74)
|   |   |   |   |   |   |   |   |   |   buying > 1: acc (5.58)
|   |   |   |   |   |   |   |   lug_boot > 2: vgood (6.6)
|   |   |   |   |   |   |   persons > 4
|   |   |   |   |   |   |   |   doors <= 2
|   |   |   |   |   |   |   |   |   lug_boot <= 2
|   |   |   |   |   |   |   |   |   |   buying <= 1: good (31.53)
|   |   |   |   |   |   |   |   |   |   buying > 1: acc (5.8/1.87)
|   |   |   |   |   |   |   |   |   lug_boot > 2: vgood (4.57)
|   |   |   |   |   |   |   |   doors > 2: vgood (41.48)
|   |   |   |   |   |   doors > 3: vgood (13.94)
|   |   |   |   buying > 2
|   |   |   |   |   lug_boot <= 2
|   |   |   |   |   |   safety <= 2
|   |   |   |   |   |   |   doors <= 2: unacc (10.28)
|   |   |   |   |   |   |   doors > 2
|   |   |   |   |   |   |   |   persons <= 4
|   |   |   |   |   |   |   |   |   doors <= 3: unacc (5.39)
|   |   |   |   |   |   |   |   |   doors > 3: acc (6.14)
|   |   |   |   |   |   |   |   persons > 4: acc (7.17)
|   |   |   |   |   |   safety > 2: acc (21.16)
|   |   |   |   |   lug_boot > 2: acc (71.72)
|   |   maint > 2
|   |   |   buying <= 3
|   |   |   |   maint <= 3
|   |   |   |   |   buying <= 1
|   |   |   |   |   |   doors <= 2
|   |   |   |   |   |   |   lug_boot <= 1
|   |   |   |   |   |   |   |   persons <= 4: acc (3.15)
|   |   |   |   |   |   |   |   persons > 4: unacc (3.67)
|   |   |   |   |   |   |   lug_boot > 1
|   |   |   |   |   |   |   |   lug_boot <= 2: acc (120.54)
|   |   |   |   |   |   |   |   lug_boot > 2: vgood (3.65/1.37)
|   |   |   |   |   |   doors > 2
|   |   |   |   |   |   |   lug_boot <= 1: acc (12.94)
|   |   |   |   |   |   |   lug_boot > 1
|   |   |   |   |   |   |   |   persons <= 4
|   |   |   |   |   |   |   |   |   doors <= 3: acc (6.27/1.65)
|   |   |   |   |   |   |   |   |   doors > 3: vgood (3.8/0.06)
|   |   |   |   |   |   |   |   persons > 4: vgood (3.52/0.0)
|   |   |   |   |   buying > 1
|   |   |   |   |   |   lug_boot <= 2
|   |   |   |   |   |   |   doors <= 3
|   |   |   |   |   |   |   |   doors <= 2
|   |   |   |   |   |   |   |   |   persons <= 4
|   |   |   |   |   |   |   |   |   |   buying <= 2: unacc (2.17/0.04)
|   |   |   |   |   |   |   |   |   |   buying > 2: acc (2.06/0.12)
|   |   |   |   |   |   |   |   |   persons > 4: unacc (17.64/1.02)
|   |   |   |   |   |   |   |   doors > 2
|   |   |   |   |   |   |   |   |   persons <= 4: unacc (4.39/0.0)
|   |   |   |   |   |   |   |   |   persons > 4: acc (6.03/1.29)
|   |   |   |   |   |   |   doors > 3: acc (12.54/1.23)
|   |   |   |   |   |   lug_boot > 2: acc (14.62)
|   |   |   |   maint > 3
|   |   |   |   |   doors <= 2
|   |   |   |   |   |   lug_boot <= 2
|   |   |   |   |   |   |   persons <= 4
|   |   |   |   |   |   |   |   buying <= 2
|   |   |   |   |   |   |   |   |   safety <= 2: unacc (2.7)
|   |   |   |   |   |   |   |   |   safety > 2: acc (4.4)
|   |   |   |   |   |   |   |   buying > 2: unacc (4.59)
|   |   |   |   |   |   |   persons > 4: unacc (129.53/0.94)
|   |   |   |   |   |   lug_boot > 2
|   |   |   |   |   |   |   buying <= 2: acc (4.78)
|   |   |   |   |   |   |   buying > 2: unacc (3.89)
|   |   |   |   |   doors > 2
|   |   |   |   |   |   buying <= 2
|   |   |   |   |   |   |   safety <= 2
|   |   |   |   |   |   |   |   lug_boot <= 2
|   |   |   |   |   |   |   |   |   buying <= 1
|   |   |   |   |   |   |   |   |   |   persons <= 4: unacc (32.68/1.84)
|   |   |   |   |   |   |   |   |   |   persons > 4
|   |   |   |   |   |   |   |   |   |   |   lug_boot <= 1: unacc (2.71)
|   |   |   |   |   |   |   |   |   |   |   lug_boot > 1: acc (4.45)
|   |   |   |   |   |   |   |   |   buying > 1: acc (4.37/0.61)
|   |   |   |   |   |   |   |   lug_boot > 2: acc (20.99)
|   |   |   |   |   |   |   safety > 2: acc (54.4)
|   |   |   |   |   |   buying > 2: unacc (27.4)
|   |   |   buying > 3: unacc (165.86)

Number of Leaves  : 	65

Size of the tree : 	129


Weight: 4.51

J48 pruned tree
------------------

maint <= 2
|   safety <= 1: unacc (73.26)
|   safety > 1
|   |   persons <= 2: unacc (57.65)
|   |   persons > 2
|   |   |   lug_boot <= 1
|   |   |   |   persons <= 4
|   |   |   |   |   buying <= 2
|   |   |   |   |   |   safety <= 2: acc (6.6)
|   |   |   |   |   |   safety > 2
|   |   |   |   |   |   |   maint <= 1: good (14.78)
|   |   |   |   |   |   |   maint > 1: acc (4.13/1.49)
|   |   |   |   |   buying > 2
|   |   |   |   |   |   safety <= 2: unacc (3.07)
|   |   |   |   |   |   safety > 2: acc (65.71)
|   |   |   |   persons > 4
|   |   |   |   |   doors <= 2: unacc (48.54)
|   |   |   |   |   doors > 2
|   |   |   |   |   |   safety <= 2
|   |   |   |   |   |   |   buying <= 2: acc (3.27)
|   |   |   |   |   |   |   buying > 2: unacc (21.17)
|   |   |   |   |   |   safety > 2: acc (27.64/3.97)
|   |   |   lug_boot > 1
|   |   |   |   safety <= 2
|   |   |   |   |   maint <= 1
|   |   |   |   |   |   lug_boot <= 2: acc (44.35/6.67)
|   |   |   |   |   |   lug_boot > 2
|   |   |   |   |   |   |   buying <= 2: good (46.58)
|   |   |   |   |   |   |   buying > 2: acc (6.86)
|   |   |   |   |   maint > 1
|   |   |   |   |   |   buying <= 2
|   |   |   |   |   |   |   doors <= 3: acc (200.73/2.26)
|   |   |   |   |   |   |   doors > 3
|   |   |   |   |   |   |   |   buying <= 1: good (3.34)
|   |   |   |   |   |   |   |   buying > 1: acc (3.33)
|   |   |   |   |   |   buying > 2
|   |   |   |   |   |   |   lug_boot <= 2: unacc (6.85/1.81)
|   |   |   |   |   |   |   lug_boot > 2: acc (6.25)
|   |   |   |   safety > 2
|   |   |   |   |   buying <= 2
|   |   |   |   |   |   lug_boot <= 2
|   |   |   |   |   |   |   doors <= 2: good (103.88/2.01)
|   |   |   |   |   |   |   doors > 2
|   |   |   |   |   |   |   |   persons <= 4
|   |   |   |   |   |   |   |   |   doors <= 3: good (51.49/2.8)
|   |   |   |   |   |   |   |   |   doors > 3: vgood (6.87)
|   |   |   |   |   |   |   |   persons > 4: vgood (21.12)
|   |   |   |   |   |   lug_boot > 2: vgood (5.66)
|   |   |   |   |   buying > 2: acc (33.84)
maint > 2
|   lug_boot <= 1
|   |   maint <= 3
|   |   |   buying <= 1
|   |   |   |   safety <= 1: unacc (3.04)
|   |   |   |   safety > 1: acc (11.77/3.64)
|   |   |   buying > 1: unacc (180.42/3.35)
|   |   maint > 3
|   |   |   doors <= 2: unacc (23.77/2.21)
|   |   |   doors > 2
|   |   |   |   persons <= 4: unacc (6.82/0.0)
|   |   |   |   persons > 4: acc (27.41/3.39)
|   lug_boot > 1
|   |   lug_boot <= 2
|   |   |   persons <= 2: unacc (20.54)
|   |   |   persons > 2
|   |   |   |   buying <= 3
|   |   |   |   |   safety <= 2
|   |   |   |   |   |   doors <= 3
|   |   |   |   |   |   |   maint <= 3
|   |   |   |   |   |   |   |   buying <= 1: acc (36.33/0.95)
|   |   |   |   |   |   |   |   buying > 1: unacc (14.74/1.23)
|   |   |   |   |   |   |   maint > 3
|   |   |   |   |   |   |   |   doors <= 2: unacc (45.16)
|   |   |   |   |   |   |   |   doors > 2
|   |   |   |   |   |   |   |   |   persons <= 4: unacc (39.19)
|   |   |   |   |   |   |   |   |   persons > 4: acc (3.47/0.41)
|   |   |   |   |   |   doors > 3
|   |   |   |   |   |   |   buying <= 1: acc (84.5/0.08)
|   |   |   |   |   |   |   buying > 1
|   |   |   |   |   |   |   |   safety <= 1: unacc (2.1)
|   |   |   |   |   |   |   |   safety > 1: acc (7.42/0.84)
|   |   |   |   |   safety > 2
|   |   |   |   |   |   maint <= 3: acc (78.93/3.67)
|   |   |   |   |   |   maint > 3
|   |   |   |   |   |   |   buying <= 2: acc (46.43)
|   |   |   |   |   |   |   buying > 2: unacc (10.5)
|   |   |   |   buying > 3: unacc (12.39)
|   |   lug_boot > 2
|   |   |   safety <= 2
|   |   |   |   safety <= 1: unacc (4.62)
|   |   |   |   safety > 1
|   |   |   |   |   persons <= 2: unacc (3.51)
|   |   |   |   |   persons > 2
|   |   |   |   |   |   buying <= 2: acc (77.74)
|   |   |   |   |   |   buying > 2
|   |   |   |   |   |   |   buying <= 3
|   |   |   |   |   |   |   |   maint <= 3: acc (2.99)
|   |   |   |   |   |   |   |   maint > 3: unacc (2.09)
|   |   |   |   |   |   |   buying > 3: unacc (2.8)
|   |   |   safety > 2
|   |   |   |   persons <= 2: unacc (17.8)
|   |   |   |   persons > 2
|   |   |   |   |   buying <= 1: vgood (78.57/1.83)
|   |   |   |   |   buying > 1
|   |   |   |   |   |   buying <= 2: acc (3.51)
|   |   |   |   |   |   buying > 2: unacc (12.46/0.12)

Number of Leaves  : 	54

Size of the tree : 	107


Weight: 3.68

J48 pruned tree
------------------

maint <= 2
|   safety <= 1: unacc (37.56)
|   safety > 1
|   |   buying <= 2
|   |   |   persons <= 2: unacc (28.45)
|   |   |   persons > 2
|   |   |   |   maint <= 1
|   |   |   |   |   doors <= 2
|   |   |   |   |   |   safety <= 2: acc (15.91/0.97)
|   |   |   |   |   |   safety > 2
|   |   |   |   |   |   |   lug_boot <= 1
|   |   |   |   |   |   |   |   persons <= 4: good (7.25)
|   |   |   |   |   |   |   |   persons > 4: unacc (11.97)
|   |   |   |   |   |   |   lug_boot > 1: good (44.98/1.18)
|   |   |   |   |   doors > 2
|   |   |   |   |   |   buying <= 1
|   |   |   |   |   |   |   safety <= 2: acc (3.65/1.2)
|   |   |   |   |   |   |   safety > 2: vgood (2.55/0.95)
|   |   |   |   |   |   buying > 1
|   |   |   |   |   |   |   safety <= 2: good (101.2/2.22)
|   |   |   |   |   |   |   safety > 2
|   |   |   |   |   |   |   |   lug_boot <= 1: good (51.05)
|   |   |   |   |   |   |   |   lug_boot > 1
|   |   |   |   |   |   |   |   |   persons <= 4: good (17.32/0.32)
|   |   |   |   |   |   |   |   |   persons > 4: vgood (9.64)
|   |   |   |   maint > 1
|   |   |   |   |   buying <= 1
|   |   |   |   |   |   safety <= 2
|   |   |   |   |   |   |   lug_boot <= 2
|   |   |   |   |   |   |   |   doors <= 2: acc (39.48/0.22)
|   |   |   |   |   |   |   |   doors > 2
|   |   |   |   |   |   |   |   |   persons <= 4: acc (40.07/0.52)
|   |   |   |   |   |   |   |   |   persons > 4: good (15.3/0.03)
|   |   |   |   |   |   |   lug_boot > 2: good (31.56)
|   |   |   |   |   |   safety > 2: good (78.52/3.36)
|   |   |   |   |   buying > 1
|   |   |   |   |   |   lug_boot <= 1
|   |   |   |   |   |   |   doors <= 2: unacc (11.11/1.25)
|   |   |   |   |   |   |   doors > 2: acc (11.38)
|   |   |   |   |   |   lug_boot > 1: acc (124.53/1.98)
|   |   buying > 2
|   |   |   safety <= 2
|   |   |   |   maint <= 1
|   |   |   |   |   lug_boot <= 2: unacc (65.3/2.52)
|   |   |   |   |   lug_boot > 2: acc (3.6/0.08)
|   |   |   |   maint > 1
|   |   |   |   |   lug_boot <= 1: unacc (7.85)
|   |   |   |   |   lug_boot > 1: acc (42.5/2.75)
|   |   |   safety > 2: acc (55.84/2.35)
maint > 2
|   doors <= 2
|   |   buying <= 3
|   |   |   safety <= 2
|   |   |   |   maint <= 3
|   |   |   |   |   lug_boot <= 1: unacc (30.83/0.79)
|   |   |   |   |   lug_boot > 1
|   |   |   |   |   |   safety <= 1: unacc (19.66)
|   |   |   |   |   |   safety > 1
|   |   |   |   |   |   |   buying <= 1: acc (50.93/1.15)
|   |   |   |   |   |   |   buying > 1: unacc (7.05/0.82)
|   |   |   |   maint > 3: unacc (24.47/0.36)
|   |   |   safety > 2
|   |   |   |   persons <= 2: unacc (5.68)
|   |   |   |   persons > 2
|   |   |   |   |   persons <= 4: acc (120.23/1.5)
|   |   |   |   |   persons > 4
|   |   |   |   |   |   lug_boot <= 1: unacc (20.1)
|   |   |   |   |   |   lug_boot > 1: acc (79.7/1.27)
|   |   buying > 3: unacc (28.28)
|   doors > 2
|   |   lug_boot <= 1
|   |   |   safety <= 2: unacc (103.71/1.52)
|   |   |   safety > 2
|   |   |   |   persons <= 2: unacc (35.39)
|   |   |   |   persons > 2
|   |   |   |   |   buying <= 2: acc (14.37)
|   |   |   |   |   buying > 2
|   |   |   |   |   |   maint <= 3
|   |   |   |   |   |   |   buying <= 3: acc (12.55)
|   |   |   |   |   |   |   buying > 3: unacc (5.5)
|   |   |   |   |   |   maint > 3: unacc (30.74)
|   |   lug_boot > 1
|   |   |   safety <= 2
|   |   |   |   safety <= 1: unacc (4.79)
|   |   |   |   safety > 1
|   |   |   |   |   buying <= 1
|   |   |   |   |   |   doors <= 3
|   |   |   |   |   |   |   lug_boot <= 2: unacc (9.02/1.61)
|   |   |   |   |   |   |   lug_boot > 2: acc (5.25/0.05)
|   |   |   |   |   |   doors > 3: acc (44.95/0.14)
|   |   |   |   |   buying > 1
|   |   |   |   |   |   maint <= 3: acc (30.86/1.98)
|   |   |   |   |   |   maint > 3: unacc (39.75/1.23)
|   |   |   safety > 2
|   |   |   |   persons <= 2: unacc (13.69)
|   |   |   |   persons > 2
|   |   |   |   |   buying <= 1
|   |   |   |   |   |   maint <= 3: vgood (113.65/0.73)
|   |   |   |   |   |   maint > 3: acc (3.91)
|   |   |   |   |   buying > 1: unacc (14.39/1.49)

Number of Leaves  : 	51

Size of the tree : 	101


Weight: 3.84

J48 pruned tree
------------------

buying <= 2
|   persons <= 2: unacc (76.42)
|   persons > 2
|   |   maint <= 2
|   |   |   safety <= 2
|   |   |   |   safety <= 1: unacc (13.52)
|   |   |   |   safety > 1
|   |   |   |   |   lug_boot <= 1
|   |   |   |   |   |   persons <= 4: acc (21.02)
|   |   |   |   |   |   persons > 4
|   |   |   |   |   |   |   doors <= 2: unacc (15.84)
|   |   |   |   |   |   |   doors > 2: acc (7.77)
|   |   |   |   |   lug_boot > 1
|   |   |   |   |   |   doors <= 3
|   |   |   |   |   |   |   lug_boot <= 2
|   |   |   |   |   |   |   |   persons <= 4: acc (54.89)
|   |   |   |   |   |   |   |   persons > 4
|   |   |   |   |   |   |   |   |   doors <= 2: acc (26.92)
|   |   |   |   |   |   |   |   |   doors > 2: good (40.2/0.17)
|   |   |   |   |   |   |   lug_boot > 2
|   |   |   |   |   |   |   |   maint <= 1: good (24.48)
|   |   |   |   |   |   |   |   maint > 1
|   |   |   |   |   |   |   |   |   buying <= 1: good (15.69)
|   |   |   |   |   |   |   |   |   buying > 1: acc (11.86)
|   |   |   |   |   |   doors > 3: good (48.19/0.87)
|   |   |   safety > 2
|   |   |   |   lug_boot <= 1
|   |   |   |   |   doors <= 2
|   |   |   |   |   |   persons <= 4
|   |   |   |   |   |   |   buying <= 1: good (8.41)
|   |   |   |   |   |   |   buying > 1: acc (25.71/3.7)
|   |   |   |   |   |   persons > 4: unacc (30.58)
|   |   |   |   |   doors > 2
|   |   |   |   |   |   maint <= 1: good (48.43)
|   |   |   |   |   |   maint > 1
|   |   |   |   |   |   |   buying <= 1: good (21.61)
|   |   |   |   |   |   |   buying > 1: acc (5.16)
|   |   |   |   lug_boot > 1
|   |   |   |   |   lug_boot <= 2
