=== Run information ===

Scheme:weka.classifiers.trees.J48 -C 0.05 -M 5
Relation:     preprocess_car_data
Instances:    1728
Attributes:   7
              buying
              maint
              doors
              persons
              lug_boot
              safety
              class
Test mode:10-fold cross-validation

=== Classifier model (full training set) ===

J48 pruned tree
------------------

persons <= 2: unacc (576.0)
persons > 2
|   safety <= 1: unacc (384.0)
|   safety > 1
|   |   buying <= 2
|   |   |   maint <= 2
|   |   |   |   safety <= 2
|   |   |   |   |   lug_boot <= 1: acc (32.0/4.0)
|   |   |   |   |   lug_boot > 1
|   |   |   |   |   |   buying <= 1
|   |   |   |   |   |   |   lug_boot <= 2
|   |   |   |   |   |   |   |   doors <= 3: acc (8.0/2.0)
|   |   |   |   |   |   |   |   doors > 3: good (8.0)
|   |   |   |   |   |   |   lug_boot > 2: good (16.0)
|   |   |   |   |   |   buying > 1
|   |   |   |   |   |   |   maint <= 1: good (16.0/3.0)
|   |   |   |   |   |   |   maint > 1: acc (16.0)
|   |   |   |   safety > 2
|   |   |   |   |   lug_boot <= 1
|   |   |   |   |   |   buying <= 1: good (16.0/2.0)
|   |   |   |   |   |   buying > 1
|   |   |   |   |   |   |   maint <= 1: good (8.0/1.0)
|   |   |   |   |   |   |   maint > 1: acc (8.0/1.0)
|   |   |   |   |   lug_boot > 1
|   |   |   |   |   |   lug_boot <= 2
|   |   |   |   |   |   |   doors <= 3: good (16.0/7.0)
|   |   |   |   |   |   |   doors > 3: vgood (16.0)
|   |   |   |   |   |   lug_boot > 2: vgood (32.0)
|   |   |   maint > 2
|   |   |   |   lug_boot <= 1
|   |   |   |   |   safety <= 2
|   |   |   |   |   |   buying <= 1
|   |   |   |   |   |   |   maint <= 3: acc (8.0/1.0)
|   |   |   |   |   |   |   maint > 3: unacc (8.0)
|   |   |   |   |   |   buying > 1: unacc (16.0)
|   |   |   |   |   safety > 2: acc (32.0/4.0)
|   |   |   |   lug_boot > 1
|   |   |   |   |   safety <= 2: acc (64.0/9.0)
|   |   |   |   |   safety > 2
|   |   |   |   |   |   buying <= 1
|   |   |   |   |   |   |   maint <= 3: vgood (16.0/3.0)
|   |   |   |   |   |   |   maint > 3: acc (16.0)
|   |   |   |   |   |   buying > 1: acc (32.0)
|   |   buying > 2
|   |   |   maint <= 3
|   |   |   |   lug_boot <= 1
|   |   |   |   |   safety <= 2: unacc (48.0)
|   |   |   |   |   safety > 2
|   |   |   |   |   |   maint <= 2: acc (32.0/4.0)
|   |   |   |   |   |   maint > 2
|   |   |   |   |   |   |   buying <= 3: acc (8.0/1.0)
|   |   |   |   |   |   |   buying > 3: unacc (8.0)
|   |   |   |   lug_boot > 1
|   |   |   |   |   maint <= 2
|   |   |   |   |   |   lug_boot <= 2
|   |   |   |   |   |   |   safety <= 2
|   |   |   |   |   |   |   |   doors <= 3: unacc (16.0/4.0)
|   |   |   |   |   |   |   |   doors > 3: acc (16.0)
|   |   |   |   |   |   |   safety > 2: acc (32.0)
|   |   |   |   |   |   lug_boot > 2: acc (64.0)
|   |   |   |   |   maint > 2
|   |   |   |   |   |   buying <= 3: acc (32.0/3.0)
|   |   |   |   |   |   buying > 3: unacc (32.0)
|   |   |   maint > 3: unacc (96.0)

Number of Leaves  : 	33

Size of the tree : 	65


Time taken to build model: 0.01 seconds

=== Stratified cross-validation ===
=== Summary ===

Correctly Classified Instances        1646               95.2546 %
Incorrectly Classified Instances        82                4.7454 %
Kappa statistic                          0.8975
Mean absolute error                      0.0298
Root mean squared error                  0.135 
Relative absolute error                 13.0114 %
Root relative squared error             39.9203 %
Total Number of Instances             1728     

=== Detailed Accuracy By Class ===

               TP Rate   FP Rate   Precision   Recall  F-Measure   ROC Area  Class
                 0.972     0.039      0.983     0.972     0.978      0.992    unacc
                 0.906     0.025      0.911     0.906     0.909      0.985    acc
                 0.938     0.004      0.897     0.938     0.917      0.999    vgood
                 0.884     0.013      0.744     0.884     0.808      0.994    good
Weighted Avg.    0.953     0.033      0.954     0.953     0.953      0.99 

=== Confusion Matrix ===

    a    b    c    d   <-- classified as
 1176   32    0    2 |    a = unacc
   17  348    4   15 |    b = acc
    0    0   61    4 |    c = vgood
    3    2    3   61 |    d = good

